svm_type c_svc
kernel_type rbf
gamma 0.01282051282051282
nr_class 2
total_sv 426
rho 0.20301647223130781
label 1 0
probA -3.2004868852403061
probB 0.053405400228921034
nr_sv 207 219
SV
1 1:0.34739566 2:0.68456443 3:-0.26517046 4:-0.88089517 5:-0.36692267 6:-0.84023964 7:-0.39807709 8:0.1732737 9:-0.39933814 10:0.45124 11:1.0824688 12:0.92997621 13:-0.18344418 14:0.30287251 15:0.78760439 16:-0.20999733 17:-0.86722045 18:-0.35427737 19:-0.72375125 20:-0.35273692 21:0.36365365 22:-0.44914903 23:0.20677552 24:1.0319269 25:0.86564425 26:-0.2383198 27:0.76579904 28:0.28649958 29:-0.0054817057 30:-0.52558717 31:-0.46779634 32:-1.3570902 33:0.35781622 34:-0.6968424 35:-0.68850862 36:0.50260238 37:0.82264794 38:0.88668709 39:-0.42091984 40:-0.64102895 41:-0.35997664 42:-0.68194167 43:-0.28557271 44:-0.29301856 45:-0.069673756 46:-0.48349783 47:0.08862806 48:-0.093927807 49:0.86046483 50:0.22972451 51:-0.27053054 52:0.044511211 53:-0.71696682 54:-0.23446151 55:-0.83164253 56:-0.24347779 57:-0.23599698 58:0.048911469 59:-0.48479148 60:0.20957995 61:-0.0088450449 62:0.96256879 63:0.34647704 64:-0.22147165 65:0.14203467 66:-0.49278533 67:-0.71078181 68:0.0026712622 69:0.55949252 70:-0.082551838 71:0.29674827 72:-0.40529787 73:-0.34951381 74:-0.39345058 75:0.18903807 76:0.52757864 77:-0.19507632 78:-0.35789138 
1 1:-0.24344961 2:0.20200735 3:0.56458168 4:0.20104488 5:-0.091651667 6:-1.1446582 7:0.67576648 8:0.30836329 9:-0.79933824 10:-0.41851717 11:-1.0823976 12:-0.70897354 13:-0.93669982 14:-0.2828309 15:0.5261459 16:0.56688143 17:0.21298226 18:-0.21800063 19:-0.92537025 20:0.63019191 21:0.21540228 22:-0.7833903 23:-0.34714372 24:-1.2178079 25:-0.73624118 26:-1.0505183 27:-0.13548941 28:-0.84453182 29:0.84113881 30:0.65351636 31:0.84240414 32:-2.0235648 33:-0.13661165 34:0.90239938 35:-0.62893745 36:-0.0038051313 37:-0.67377954 38:-0.26127362 39:0.069106434 40:-0.43707331 41:0.46323539 42:-0.49159687 43:-0.61313019 44:-0.73357457 45:0.90857684 46:2.011671 47:-0.80433697 48:-0.46245115 49:-0.58424033 50:-0.3218155 51:-0.64963151 52:-0.19813082 53:-0.3635074 54:0.69906859 55:-0.50292454 56:-0.79306711 57:-0.85109011 58:1.1512913 59:2.0259783 60:-0.94313081 61:-0.44627578 62:-0.59128711 63:-0.29013072 64:-0.68614688 65:-0.16166397 66:0.18693069 67:-0.093009307 68:-0.89353429 69:-0.79950259 70:-0.60112371 71:1.082102 72:0.36900528 73:-0.8791761 74:-0.21349003 75:-0.85712462 76:-0.1466024 77:-0.37039028 78:-0.086353946 
1 1:0.84996928 2:0.38679235 3:1.9614238 4:-2.7508273 5:-1.5022591 6:0.91818597 7:1.2247393 8:0.49320555 9:-3.2834327 10:0.77540272 11:0.43322872 12:-1.2841675 13:1.7065604 14:0.95153672 15:0.49599202 16:1.9530892 17:-2.9122022 18:-1.3439468 19:0.89552798 20:1.1493755 21:0.52222578 22:-3.1378686 23:0.63916714 24:0.17562198 25:-1.3663954 26:1.5557007 27:0.61020346 28:0.56494696 29:2.1277375 30:-2.1634366 31:-1.0395316 32:0.49320682 33:1.956655 34:0.69768461 35:-2.5818862 36:1.2702408 37:0.2907566 38:-0.17844703 39:1.0214571 40:0.61233499 41:-0.77155136 42:-0.25198819 43:1.651185 44:-0.0027665537 45:-0.22292358 46:-1.0841464 47:-0.85430643 48:1.0130243 49:-0.65302359 50:1.2200833 51:-0.7795967 52:0.79584539 53:0.85582904 54:-0.94296167 55:-0.14826535 56:1.8825122 57:0.11950531 58:-0.15612124 59:-1.3886877 60:-1.0186356 61:1.1233822 62:-0.67743023 63:1.3425553 64:-0.85573168 65:0.99522217 66:-0.94470655 67:-0.61868835 68:-1.0293544 69:3.4056525 70:1.5047611 71:-0.42647882 72:-0.58983692 73:-1.0665044 74:3.8976052 75:-0.080332156 76:0.39792693 77:0.21948118 78:1.4080529 
1 1:-0.057848327 2:0.70078472 3:-0.13078893 4:0.12159951 5:-0.25873772 6:0.48290808 7:-0.3530905 8:-0.12752059 9:-0.45451295 10:-0.55313021 11:-0.056744911 12:-0.32938563 13:-0.48285291 14:-0.095899314 15:0.56697187 16:-0.037406882 17:0.15435492 18:-0.36170182 19:0.51314399 20:-0.20579756 21:-0.056037411 22:-0.45943798 23:-0.43178227 24:-0.068882221 25:-0.36968626 26:-0.41603404 27:0.59922039 28:1.0235586 29:0.20403416 30:0.32916814 31:0.3400807 32:0.98764795 33:0.047152922 34:0.35554583 35:0.77050437 36:0.01687125 37:0.056205538 38:0.48917479 39:0.24900407 40:-0.90361294 41:-0.56398145 42:-0.61590763 43:-0.76367812 44:-0.60457714 45:-0.78842305 46:-0.51234579 47:-0.56422434 48:-1.243711 49:-0.90531676 50:-0.50582768 51:-0.64830966 52:-0.93298054 53:-1.3855944 54:-0.54661292 55:-0.71148995 56:-1.096875 57:-0.65928341 58:-1.0547453 59:-0.52336064 60:-0.6002362 61:-1.5466192 62:-1.0071441 63:-0.52059017 64:-0.68445161 65:-1.2057558 66:-0.048011419 67:-0.80922572 68:-0.14503731 69:-0.83748695 70:-0.34789462 71:-1.1770372 72:-0.46994868 73:-0.32016345 74:-0.95444213 75:-1.002967 76:-0.85531406 77:-0.65877192 78:-0.98202737 
1 1:0.53438901 2:-1.1467799 3:0.62439344 4:1.6247445 5:0.027217798 6:0.43232083 7:0.68948255 8:0.61283925 9:1.0913977 10:-1.8921848 11:-0.51107457 12:0.32109849 13:-0.38515892 14:0.53250734 15:-1.466716 16:0.57867002 17:1.5051484 18:-0.10539267 19:0.40872527 20:0.67778216 21:0.56467352 22:1.041938 23:-1.8697473 24:-0.43167976 25:0.269956 26:-0.45007915 27:0.95308306 28:-1.0127362 29:1.3274374 30:1.3985543 31:-0.070061257 32:0.98099916 33:1.1591198 34:0.035888204 35:1.7533364 36:-2.0620688 37:-0.083895245 38:0.64280542 39:0.45214094 40:-0.57302728 41:1.2732301 42:-0.88196155 43:-0.71635117 44:-0.12287419 45:-0.76635741 46:-0.97715366 47:-0.49058795 48:-0.90099663 49:0.11241292 50:-0.5372663 51:-0.66591605 52:-0.94898366 53:-0.59013604 54:1.3861884 55:-1.2546574 56:-0.99651783 57:-0.023758034 58:-1.0136924 59:-1.2087763 60:-0.5008475 61:-1.0273275 62:0.20991789 63:-0.56103931 64:-0.70707907 65:-1.2312256 66:-0.6986381 67:1.2429309 68:-1.1125801 69:-0.5522142 70:-0.40321758 71:-1.1776401 72:-1.1080035 73:-0.94917936 74:-0.07335171 75:0.94967037 76:-0.78741204 77:-0.78354782 78:-1.0507764 
1 1:-0.61788166 2:1.1697753 3:1.1491492 4:0.78758565 5:0.019433657 6:0.39969012 7:0.40105766 8:0.93687229 9:0.72028202 10:-0.46169734 11:-1.2110873 12:0.44156736 13:-0.41932097 14:-0.7071027 15:0.97935972 16:1.1128964 17:1.0463383 18:0.02995146 19:0.42495976 20:0.46207615 21:0.95015719 22:0.81369011 23:-0.4481791 24:-1.1000851 25:0.35338212 26:-0.5113351 27:-0.3876663 28:0.60104752 29:0.99389455 30:0.18302623 31:-0.76816156 32:-0.029751387 33:0.68666374 34:0.89782571 35:-0.47218283 36:-0.66308754 37:-0.53246954 38:-0.080635301 39:-0.066589744 40:-0.36521968 41:0.90147711 42:-0.37575837 43:0.6155252 44:0.94168362 45:0.5275274 46:-0.78018255 47:-0.40825878 48:0.25875724 49:-0.55217182 50:-0.4736923 51:-0.25470953 52:-0.22051266 53:-0.2547016 54:1.088847 55:-0.32488906 56:0.8910253 57:1.1082057 58:0.75562268 59:-0.9017991 60:-0.39251681 61:0.37727413 62:-0.55162521 63:-0.47958122 64:-0.20293563 65:-0.19052583 66:0.61439631 67:-0.45058448 68:-1.2934212 69:-0.25135978 70:0.073823416 71:-0.30502528 72:-1.0789741 73:-1.0446583 74:-0.025824737 75:-0.82867536 76:-0.077921492 77:-0.48194012 78:-0.46958007 
1 1:0.53953554 2:-0.42764237 3:-1.1084051 4:2.7933155 5:1.7114905 6:-4.4557192 7:0.25634445 8:2.4476129 9:0.055902356 10:-3.2854181 11:0.19761555 12:2.5618902 13:-0.88684795 14:0.62312306 15:-0.47886658 16:-1.3852951 17:3.6444188 18:2.3057709 19:-4.7529407 20:0.14746745 21:3.4874524 22:-0.029878581 23:-3.4144875 24:0.20691151 25:2.6188653 26:-0.85845373 27:0.13350659 28:-0.60717227 29:-1.9192903 30:-0.47465424 31:-2.8435757 32:-4.7543477 33:-0.070510767 34:-0.54177824 35:-1.0087336 36:-3.5332456 37:-1.1703834 38:-0.19477309 39:-1.8943321 40:0.86777921 41:0.14775809 42:3.7915682 43:6.4552616 44:9.6777969 45:5.3040297 46:-0.25546708 47:9.684016 48:3.2571488 49:2.2220219 50:4.2106526 51:4.1928282 52:0.66067944 53:1.0835823 54:0.38193838 55:3.2177739 56:5.0208971 57:6.5154756 58:4.3996243 59:-0.19239521 60:6.7044004 61:2.9447784 62:2.1475679 63:3.7190023 64:3.6469538 65:0.84997508 66:-0.60013215 67:0.38541511 68:1.6605906 69:2.7039302 70:2.5928444 71:7.1410878 72:-0.73332698 73:2.4304301 74:0.7438509 75:3.711333 76:1.6249297 77:3.2502135 78:0.37673488 
1 1:-0.68771437 2:1.1222536 3:-0.77785495 4:0.56529344 5:0.62585313 6:0.13850222 7:0.85500809 8:-1.3663745 9:0.68934871 10:0.3031302 11:-0.74447846 12:-0.78070007 13:-0.35993435 14:-0.68491354 15:1.0195714 16:-0.62245764 17:0.55467615 18:0.81222606 19:0.063593464 20:0.86600297 21:-1.3587806 22:0.72369052 23:0.32272619 24:-0.68572669 25:-0.87411099 26:-0.6987613 27:-0.12830194 28:1.4994563 29:-0.45243581 30:1.2174352 31:0.62084276 32:0.3083542 33:0.77742337 34:-0.99304985 35:0.58618244 36:0.90964821 37:-0.36475721 38:-0.60063022 39:-0.52545366 40:-0.85914707 41:-0.64358949 42:-0.35878569 43:-0.81742947 44:-0.18559641 45:-0.56129395 46:-0.16011386 47:-0.90521266 48:-0.52983919 49:-1.0173238 50:0.59205374 51:-0.0039461224 52:0.054442212 53:-1.2368647 54:-0.68608525 55:-0.2999047 56:-1.2175105 57:-0.10065763 58:-0.65998301 59:-0.076009688 60:-1.0972376 61:-0.53077324 62:-1.1613276 63:0.72939557 64:0.082910378 65:0.15412724 66:0.67316907 67:-1.1087141 68:0.69039306 69:-1.2210755 70:-0.7679807 71:-0.99217632 72:-0.49097289 73:1.1647772 74:-0.38995288 75:-0.81759784 76:0.066279142 77:0.052345135 78:-0.30482942 
1 1:-0.64802452 2:0.84502912 3:1.254727 4:0.8462279 5:0.97070082 6:0.30179025 7:0.41894976 8:-0.12363575 9:-0.010559415 10:-0.32553392 11:-0.36461891 12:0.080867257 13:-0.052769909 14:-0.67826179 15:1.2588847 16:1.1588962 17:0.91392052 18:1.121594 19:0.29103648 20:0.30584633 21:-0.13296551 22:0.0085128456 23:-0.32827345 24:-0.38930653 25:0.011818017 26:-0.12280884 27:-0.28981144 28:0.55758149 29:1.7965271 30:0.17038392 31:0.40120808 32:0.62288225 33:1.1825624 34:0.56593187 35:-0.097182597 36:-0.19975159 37:-0.79984493 38:-0.66522958 39:-0.81923214 40:-0.71496006 41:0.092710841 42:-0.69557698 43:-0.30764243 44:0.36126839 45:-0.32554448 46:-1.110111 47:0.099789816 48:-0.61321351 49:-0.29686554 50:-0.59743764 51:1.2058778 52:-0.4152322 53:-0.86913526 54:0.3224776 55:-0.85741976 56:-0.27708228 57:0.52617995 58:-0.30065364 59:-1.4340028 60:0.22223859 61:-0.63752073 62:-0.24629443 63:-0.63939429 64:1.299491 65:-0.448349 66:0.63391595 67:-0.63159158 68:-1.5223753 69:-0.80492044 70:-0.45818405 71:-0.84253399 72:-1.3299278 73:-0.066854502 74:-0.79037403 75:-0.70907997 76:-0.8955958 77:0.26673836 78:-0.70017475 
0.84187130259019516 1:2.3530267 2:0.012032381 3:-1.2305104 4:-1.0862245 5:-2.1561904 6:-1.580487 7:0.019962916 8:0.57285493 9:1.155993 10:2.3569884 11:2.2953259 12:1.9300532 13:0.76394952 14:2.3245999 15:0.095334945 16:-1.0662037 17:-1.2063617 18:-2.2734485 19:-1.4338018 20:-0.14333802 21:0.53083693 22:1.3960337 23:2.479534 24:2.3209697 25:1.7686166 26:1.0773177 27:2.3797054 28:0.19143248 29:-1.6814356 30:-2.0726615 31:-2.2103345 32:-1.6312922 33:-0.74757452 34:0.31330351 35:-0.52181116 36:0.80303462 37:-0.2820295 38:1.090876 39:-1.6245242 40:0.047695123 41:-0.66174731 42:0.53086461 43:2.2585731 44:1.9106671 45:-0.10371776 46:1.5557053 47:1.0955678 48:4.4892834 49:2.0102774 50:4.5110606 51:2.5225634 52:3.6254346 53:0.27743212 54:-0.71977027 55:0.76728385 56:2.3804149 57:1.9546828 58:0.0043875796 59:1.6457647 60:1.2418694 61:3.7877872 62:1.9754278 63:3.9246666 64:2.4185421 65:3.52323 66:-1.7882492 67:-0.21895912 68:1.3715876 69:1.5624023 70:2.8524545 71:1.4209315 72:0.20178324 73:-0.21110443 74:1.6384572 75:3.1122586 76:3.7581163 77:1.9952777 78:1.7531794 
0.31388591060590226 1:0.29145153 2:0.51263586 3:-0.39814812 4:-1.7556685 5:-0.52129872 6:-2.9692342 7:1.8527292 8:-1.8155972 9:-0.014309561 10:-2.5235777 11:1.4403886 12:0.75682475 13:-2.2908513 14:0.48831288 15:0.45840341 16:-0.25650504 17:-1.8423385 18:-0.53993893 19:-3.191653 20:1.8215484 21:-1.8712811 22:-0.045750638 23:-2.6691628 24:1.5054006 25:0.8728426 26:-2.4578735 27:-0.37660534 28:0.2890157 29:-0.49505378 30:-1.9075037 31:-0.39883236 32:-2.997846 33:1.1195128 34:-2.1714388 35:0.25461092 36:-2.6854972 37:-0.34615674 38:-0.8216607 39:-1.9958666 40:1.0399235 41:-0.6005628 42:-0.28588178 43:0.45615945 44:-0.45676866 45:3.8041439 46:-0.070286025 47:1.5672672 48:-0.27665022 49:1.3472956 50:0.97613521 51:1.3714535 52:1.048243 53:1.2283917 54:-0.60915823 55:-0.19540192 56:0.71534708 57:-0.45218898 58:3.4625222 59:0.030824846 60:1.667065 61:-0.22084706 62:1.4092463 63:1.1111389 64:1.4498695 65:1.2582963 66:-0.32419331 67:-0.66932569 68:0.24514652 69:1.8802009 70:0.033831992 71:4.4951244 72:0.74342258 73:2.3232781 74:-0.61182471 75:2.2713066 76:1.3477728 77:0.51658272 78:2.204253 
1 1:0.25629853 2:0.36100396 3:-0.02734363 4:-0.27870627 5:0.22172457 6:-0.45813876 7:-0.078703659 8:0.59526454 9:0.043696762 10:-0.081373732 11:0.42407124 12:0.8139432 13:0.42734087 14:0.22713238 15:0.24842074 16:-0.0059155436 17:-0.47312111 18:0.28560164 19:-0.51897829 20:-0.05298145 21:0.7117624 22:-0.019407664 23:-0.21687816 24:0.50250806 25:0.72646393 26:0.35008546 27:0.66219079 28:0.11861199 29:0.52855003 30:0.165002 31:-0.68207471 32:-0.64637862 33:-0.24571493 34:-0.32603497 35:0.13864761 36:0.13139073 37:-0.011129469 38:1.5932194 39:0.62221534 40:-0.65245851 41:-0.28164344 42:-0.78596956 43:0.37012963 44:0.042016239 45:-0.41914326 46:0.087159911 47:0.2444287 48:-0.4021138 49:-0.67011942 50:-0.25365003 51:-0.82655772 52:-0.4805378 53:-0.73941105 54:-0.12721495 55:-1.0382876 56:0.61701464 57:0.17166645 58:-0.43833759 59:0.21209009 60:0.38335692 61:-0.37189548 62:-0.69907466 63:-0.20730481 64:-0.91849268 65:-0.53771857 66:-0.39052829 67:-0.4289541 68:-0.31151819 69:0.15630621 70:-0.46782285 71:-0.37761596 72:-0.40206599 73:-0.57869742 74:-0.67658398 75:-0.87991768 76:-0.44792095 77:-0.62415919 78:-0.61170333 
1 1:-1.0087333 2:-1.0465806 3:1.472309 4:0.48955519 5:0.040176549 6:-1.139318 7:0.26054278 8:0.24365053 9:-1.1503134 10:0.21946818 11:0.18036855 12:0.37670916 13:-1.0909143 14:-1.0169905 15:-0.8548166 16:1.4573719 17:0.41843878 18:-0.016679777 19:-1.115206 20:0.34473222 21:0.27865432 22:-1.2437402 23:0.17447156 24:-0.047757567 25:0.4065738 26:-1.0577295 27:-0.62504123 28:-0.20451376 29:2.4009654 30:1.1238459 31:1.3216327 32:-0.051236195 33:0.62514249 34:1.1765471 35:0.50168749 36:1.3590944 37:1.4720537 38:1.5609503 39:-0.010908644 40:-0.76425004 41:-0.77901587 42:-0.8788849 43:-0.71003271 44:-1.0623655 45:-0.70266819 46:-0.75659574 47:-1.2236103 48:-1.3409682 49:-1.365082 50:-1.408195 51:-1.3838668 52:-0.34529736 53:-0.98163756 54:-0.95962287 55:-1.2472282 56:-0.9834883 57:-1.402982 58:-0.89876916 59:-0.86683602 60:-1.6360638 61:-1.7083632 62:-1.678262 63:-1.8558042 64:-1.7388163 65:-0.3543105 66:1.0433177 67:0.84115527 68:-1.6783521 69:-1.0796775 70:-0.93798757 71:0.49256939 72:-1.0535192 73:-1.0403239 74:-0.12257692 75:-1.1072433 76:-1.5147025 77:-1.3095264 78:-0.020853688 
1 1:0.11848453 2:0.45292374 3:-0.02978712 4:0.57608762 5:0.99550316 6:-0.52893832 7:-1.3047392 8:0.33447985 9:0.97178727 10:-0.92857341 11:0.15770179 12:-0.20175061 13:0.15630317 14:0.053335164 15:0.41159377 16:0.017422351 17:0.40702237 18:1.0245074 19:-0.46197988 20:-1.4957264 21:0.56437435 22:1.0657618 23:-1.0035181 24:-0.0014125696 25:-0.2703658 26:0.40432658 27:0.57932423 28:0.85458801 29:-0.15567601 30:0.4053043 31:1.133685 32:-1.4487313 33:-1.2905007 34:-0.066236119 35:-0.40435212 36:-0.88790351 37:0.021750006 38:-0.3178308 39:-1.3849337 40:-0.67860232 41:-0.74917439 42:-0.60982988 43:0.81425153 44:-0.51978475 45:-0.089022973 46:1.3441931 47:-0.4810259 48:0.56952892 49:-0.96404629 50:-0.24419748 51:0.27880384 52:0.084685408 53:-0.79215385 54:-0.89431457 55:-0.70079105 56:1.0996854 57:-0.5389704 58:0.023674058 59:1.4609983 60:-0.48811838 61:0.6962932 62:-1.0873345 63:-0.19592134 64:0.38910167 65:0.19079943 66:-0.23599933 67:-0.67297275 68:-0.26420841 69:-0.13571898 70:-0.94913142 71:-0.11740873 72:1.4278671 73:-0.74026895 74:0.33429253 75:-0.75678281 76:-0.60622689 77:-0.16129845 78:-0.32048354 
1 1:-0.99910101 2:1.3558968 3:-0.66443929 4:0.57622573 5:1.4899864 6:0.41116184 7:0.94574499 8:-0.90771446 9:-1.190229 10:0.59419518 11:-1.6608716 12:-1.336756 13:0.27434371 14:-1.0145357 15:1.1759827 16:-0.60208659 17:0.63359484 18:1.4183236 19:0.37620142 20:0.91995031 21:-0.87539383 22:-1.2583896 23:0.51267827 24:-1.5863686 25:-1.0988321 26:0.31302002 27:-0.78172803 28:1.4657334 29:-1.0367516 30:0.39260942 31:1.8026168 32:0.53332358 33:0.765221 34:-0.21231833 35:-0.47039614 36:0.46666004 37:-1.0989858 38:-1.8584616 39:-0.24509088 40:-0.57046796 41:-0.72155539 42:0.60685996 43:-0.47341339 44:-0.80783704 45:-0.33934945 46:-0.41397407 47:-0.82261292 48:-0.58436522 49:1.0203564 50:0.56940835 51:1.2770257 52:0.32555952 53:-0.58556464 54:-0.83670986 55:0.84364532 56:-0.54385821 57:-0.96698603 58:-0.32059111 59:-0.39337163 60:-0.970563 61:-0.60029971 62:1.1125408 63:0.70615531 64:1.3645018 65:0.47506857 66:1.0395254 67:-1.2040237 68:0.71716632 69:-0.91242203 70:-0.7825518 71:-0.83998359 72:-0.54913726 73:0.55919027 74:0.22656398 75:0.38159166 76:1.0527049 77:1.1845672 78:-0.1299265 
0.54955486344181881 1:1.3693615 2:0.22614335 3:-0.70735155 4:-0.73236077 5:-0.14938198 6:-0.2224864 7:-0.40866926 8:0.88428964 9:-1.3399587 10:-0.77869751 11:1.1817606 12:-1.3942987 13:-1.3190579 14:1.381636 15:0.056877231 16:-0.89446282 17:-0.91647462 18:0.86827874 19:0.029076008 20:-0.24997312 21:0.80355582 22:-1.313516 23:-0.66216245 24:1.0824523 25:-1.487246 26:-1.5803438 27:1.3568333 28:0.26158515 29:-0.67429267 30:-0.98473539 31:-2.5433854 32:-0.61536555 33:-1.2766616 34:-0.30879394 35:-1.5970643 36:-0.74485198 37:1.1173328 38:-2.5883989 39:-1.3097659 40:0.10607743 41:0.11517766 42:0.57616264 43:1.0741187 44:6.9510953 45:1.2046177 46:1.4976643 47:2.5691607 48:0.92088913 49:0.57701361 50:1.0569746 51:2.9158698 52:1.3421776 53:0.34348829 54:0.34691517 55:0.81299901 56:1.357662 57:5.1759803 58:1.4370455 59:1.5956316 60:2.4858221 61:1.0370947 62:0.68794796 63:1.1887123 64:2.7239733 65:1.5525956 66:-1.5142173 67:-0.20233337 68:0.76151951 69:0.85786127 70:1.9706777 71:0.20840336 72:0.44877318 73:0.22123338 74:0.91149068 75:-0.1263125 76:1.0401044 77:1.8457835 78:1.1156927 
1 1:0.4508141 2:1.1701284 3:-0.50661665 4:-1.4740085 5:-0.56618645 6:-0.577223 7:-0.63491398 8:0.98797979 9:-1.0053648 10:-0.87737622 11:0.058817953 12:-0.34441714 13:-0.054251072 14:0.31048985 15:1.0672598 16:-0.49263558 17:-1.3183763 18:-0.56863051 19:-0.43280551 20:-0.60371968 21:1.1304063 22:-0.99214728 23:-0.93721936 24:0.14554572 25:-0.41619839 26:-0.18716928 27:0.75244844 28:1.0112839 29:0.07556496 30:-1.0109106 31:-0.82672744 32:-0.50326278 33:-0.8635455 34:0.98286332 35:-1.3364 36:-0.37760464 37:0.22536603 38:-0.21655959 39:0.64839565 40:0.15049137 41:-0.64085315 42:-0.49217738 43:-0.43233488 44:0.34319676 45:-0.1197159 46:-0.11366334 47:-0.12574027 48:0.65192519 49:-0.31925854 50:-0.88337621 51:0.8314288 52:-0.56480854 53:0.39258654 54:-0.68107491 55:-0.50385281 56:-0.47517263 57:0.50685498 58:-0.016729395 59:-0.02043819 60:-0.040377708 61:0.7779818 62:-0.27237781 63:-1.0304677 64:0.94684503 65:-0.6553952 66:-0.55440756 67:-1.1226501 68:0.33562411 69:1.2799709 70:0.39418978 71:-0.073879265 72:0.046067119 73:-0.90186935 74:0.43237529 75:-0.4696241 76:-1.1168473 77:0.18675397 78:-0.81608985 
1 1:-0.50439356 2:1.0458114 3:-0.88541669 4:-0.35899334 5:0.12866231 6:-0.3415235 7:-0.12222465 8:-0.056194845 9:-0.57673381 10:-0.16984494 11:0.086546737 12:0.98480431 13:-0.35600603 14:-0.53571771 15:0.99975289 16:-0.79325604 17:-0.28492645 18:0.050001118 19:-0.34972275 20:-0.094848921 21:-0.017744003 22:-0.54782769 23:-0.19851077 24:0.14990544 25:0.93028735 26:-0.40001184 27:-0.077461176 28:1.4259084 29:-0.23989887 30:0.11396609 31:0.11390943 32:0.11340612 33:0.42752281 34:0.47058863 35:-0.2332928 36:0.35568349 37:0.52439381 38:0.94001327 39:0.39433518 40:-0.72164365 41:-0.92941765 42:-0.84847475 43:-0.7698271 44:-0.92158447 45:-0.66505379 46:-0.84624375 47:-0.85188572 48:-0.77838134 49:-0.92400389 50:-1.0665682 51:-0.78921168 52:-0.74944067 53:-0.88379974 54:-1.3654679 55:-1.175722 56:-1.1102952 57:-1.1535995 58:-0.83318317 59:-1.0016466 60:-1.014941 61:-0.85688085 62:-1.0325079 63:-1.300101 64:-0.86851501 65:-0.92340687 66:0.46998675 67:-1.2925611 68:0.74258745 69:-0.29495871 70:-0.93913443 71:-0.66801318 72:-0.89376461 73:-0.52200269 74:-0.58664597 75:-1.0589313 76:-1.2580081 77:-0.4474274 78:-0.89708677 
0.53250377180833286 1:0.74606868 2:0.31797243 3:0.042141952 4:0.31118561 5:0.40636441 6:-0.15900315 7:-0.70782101 8:0.72484943 9:-1.9720832 10:-1.3369659 11:1.262263 12:-0.34043009 13:-1.9674078 14:0.65589047 15:0.2073473 16:-0.16889991 17:0.3625092 18:0.50192631 19:-0.079910167 20:-0.67503021 21:0.80335244 22:-2.0192316 23:-1.1477277 24:1.1956701 25:-0.11608928 26:-1.8598882 27:1.183673 28:0.061236064 29:-0.24011713 30:0.1768065 31:0.17670947 32:-0.21711153 33:-0.83338873 34:-0.47164903 35:-0.98720445 36:-0.97281189 37:0.81481166 38:0.31471715 39:-1.6823409 40:-0.40756635 41:0.060910792 42:0.8395953 43:-0.12552297 44:0.24860082 45:0.12696172 46:0.72413828 47:0.57036637 48:-0.14825101 49:-0.72401494 50:0.22152474 51:-0.10633976 52:0.094709844 53:-0.31803952 54:0.28747335 55:1.0679292 56:-0.010877329 57:0.40431883 58:0.29599085 59:0.88211148 60:0.72854134 61:-0.07094275 62:-0.76794165 63:0.33752078 64:-0.032061863 65:0.20290429 66:-0.92137762 67:-0.29130374 68:-0.0039278372 69:-0.55173665 70:-0.46309892 71:-0.36552332 72:0.46235519 73:-0.49373655 74:1.5242984 75:-0.15461098 76:0.76601382 77:-0.31972788 78:1.3444654 
0.90299594252761528 1:-0.67375254 2:1.1876264 3:-0.32980112 4:-0.26731445 5:-0.52844731 6:-0.78444084 7:-0.13684758 8:-0.46418645 9:0.961275 10:-1.7376247 11:-0.74828109 12:0.67360442 13:-0.39779171 14:-0.77164142 15:1.0714488 16:-0.32928681 17:-0.49594228 18:-0.37125635 19:-0.73979892 20:-0.11032461 21:-0.21872056 22:0.91826287 23:-1.9232065 24:-0.74370407 25:0.81322408 26:-0.37599206 27:-0.41974595 28:1.412005 29:-0.030283749 30:-0.067086623 31:-0.24954312 32:-0.64989397 33:1.0017294 34:-0.88079248 35:0.57691309 36:-1.5587796 37:-0.98736773 38:0.037754206 39:-0.26240022 40:-0.39493615 41:-0.77591697 42:-0.35355713 43:0.33956309 44:-0.46942763 45:-0.40923219 46:-0.94905394 47:1.2444513 48:-0.12351738 49:0.48843155 50:-0.63439651 51:-0.07781011 52:-0.55696779 53:-0.29892052 54:-0.95267835 55:-0.29225996 56:0.58143586 57:-0.46945141 58:-0.42347088 59:-1.1631925 60:1.3793512 61:-0.042575138 62:0.59963993 63:-0.68815423 64:0.00020623465 65:-0.64433 66:0.67652672 67:-1.2286199 68:0.15020298 69:0.13277048 70:0.037581499 71:0.067012839 72:-0.94657793 73:0.65551833 74:0.069386316 75:0.84939725 76:-0.68785118 77:-0.26801046 78:-0.7263626 
0.93295981146180673 1:-0.61892085 2:0.42847092 3:-0.12428039 4:-0.66891962 5:-0.058136416 6:-0.81641595 7:0.1959044 8:-1.1152305 9:-0.38203448 10:-0.093109325 11:0.66167224 12:1.7889779 13:-0.84183652 14:-0.63657363 15:0.38787274 16:-0.057516644 17:-0.57109099 18:0.093222497 19:-0.81047815 20:0.16156093 21:-0.95304897 22:-0.46708157 23:0.10567388 24:0.56137301 25:1.563587 26:-0.74882463 27:-0.094759897 28:0.60233291 29:0.21473224 30:-0.34927397 31:0.055792748 32:-0.49487931 33:0.72865618 34:-1.0645287 35:0.53261318 36:0.47191362 37:1.741368 38:0.33049103 39:0.25374521 40:-0.85165511 41:-0.71998221 42:-0.53824464 43:-0.35835334 44:0.14281019 45:-0.63799214 46:-0.70695287 47:0.5199493 48:-0.61498955 49:-0.75774981 50:-0.80101764 51:0.75187717 52:-0.53033304 53:-1.2141539 54:-0.83350322 55:-0.57880241 56:-0.35588517 57:0.28675232 58:-0.786962 59:-0.79436264 60:0.67662869 61:-0.63982235 62:-0.81154929 63:-0.91440799 64:0.86948194 65:-0.60692256 66:0.59494077 67:-0.63892738 68:-0.13462994 69:0.27185514 70:-0.20475057 71:0.0072360987 72:-1.0019798 73:1.1999873 74:-0.65824533 75:-0.93532156 76:-0.57808965 77:1.1897686 78:-0.39331002 
1 1:-0.35389469 2:0.77785699 3:-0.92137924 4:0.13817508 5:-0.46628173 6:-0.48866801 7:0.37174896 8:0.079310708 9:-0.482615 10:0.31446075 11:0.34305909 12:0.45687963 13:0.41263651 14:-0.41338012 15:0.768134 16:-0.86677122 17:0.22892743 18:-0.44639038 19:-0.44627022 20:0.4731232 21:0.061257247 22:-0.41376278 23:0.30831523 24:0.33738308 25:0.46574269 26:0.38864791 27:0.069679141 28:1.1529286 29:-0.67443064 30:0.11933769 31:-0.31051987 32:-0.61266823 33:0.46911717 34:0.042635216 35:-0.0068161299 36:0.65219979 37:0.57725799 38:0.84039829 39:0.28419532 40:-0.679005 41:-0.85197298 42:-0.65232838 43:-0.37804225 44:-0.59142055 45:-0.5541131 46:-0.6178548 47:-0.90338168 48:-0.70454505 49:-0.78647623 50:-1.1884722 51:-0.47642935 52:-0.56801845 53:-0.79298237 54:-1.1364645 55:-0.77683885 56:-0.3871095 57:-0.64033397 58:-0.64837962 59:-0.66783352 60:-1.0943798 61:-0.7574544 62:-0.84899681 63:-1.489554 64:-0.46870865 65:-0.6599322 66:0.30061176 67:-1.0172454 68:0.81961433 69:-0.58890529 70:-0.091379668 71:-0.41558868 72:-0.96912213 73:-0.69644303 74:-0.63120186 75:-0.68049205 76:-1.1927865 77:-0.61528499 78:-0.68550684 
0.6493450152644924 1:2.1528902 2:-0.89712178 3:1.1059345 4:-0.0047370552 5:-0.41557187 6:-0.74797418 7:-0.81142208 8:1.0884037 9:-0.080002348 10:-0.95339402 11:2.0887606 12:0.062183427 13:1.4327426 14:2.0351852 15:-1.0354444 16:1.8521916 17:-0.1402416 18:-0.28311837 19:-0.75128116 20:-0.81776314 21:0.77375723 22:-0.14806588 23:-1.0289361 24:1.9884699 25:-0.12789511 26:1.5108442 27:2.175589 28:-0.66641113 29:-1.0757654 30:-0.35517418 31:-1.4836472 32:-0.73122824 33:-0.091145276 34:0.66709372 35:0.013041279 36:-0.58248628 37:2.0904685 38:-2.6092912 39:1.2012492 40:0.41698348 41:0.45568612 42:3.7763303 43:0.85452587 44:0.45583159 45:0.25402976 46:0.29118866 47:2.1674947 48:0.51722469 49:0.24131919 50:0.099723495 51:2.5985917 52:-0.53019683 53:0.66922269 54:0.69188967 55:3.2086797 56:1.1407069 57:0.62598865 58:0.44753089 59:0.43685387 60:2.1695112 61:0.64383729 62:0.34638934 63:0.20282723 64:2.4784748 65:-0.60673196 66:-1.8087448 67:0.88574849 68:0.00037375282 69:0.14279264 70:0.27075615 71:0.3107891 72:0.42881973 73:0.058953475 74:-0.23604143 75:-0.14656887 76:2.0278593 77:0.8969752 78:0.39323924 
1 1:-1.1308975 2:-0.80230827 3:1.5341405 4:0.80591566 5:0.15403738 6:-0.87550526 7:-0.063806526 8:0.4575026 9:-0.9227827 10:0.44282135 11:0.07338504 12:0.42574266 13:-1.2606383 14:-1.1474523 15:-0.86754966 16:1.4720908 17:0.75345736 18:0.17819543 19:-0.77442981 20:-0.024588254 21:0.61641789 22:-0.83871703 23:0.43627723 24:-0.05056561 25:0.38946516 26:-1.2806336 27:-0.80465866 28:-1.0586291 29:1.1409309 30:1.2813299 31:0.84419309 32:-0.15521492 33:1.1251928 34:1.3502346 35:-0.44328521 36:1.1572779 37:1.098608 38:1.0237729 39:0.088172083 40:-0.78972109 41:-0.046648308 42:-0.53934796 43:-0.67660698 44:-1.0975932 45:-0.64314944 46:-1.1163005 47:-1.101854 48:-0.64140136 49:-0.59654621 50:-1.1964845 51:-0.87562406 52:-0.8721067 53:-1.0442909 54:0.16519701 55:-0.58062972 56:-0.91588324 57:-1.469208 58:-0.79571069 59:-1.4449084 60:-1.4191565 61:-0.67419075 62:-0.60659013 63:-1.5023204 64:-0.98496271 65:-1.1101719 66:1.1818294 67:0.71213084 68:-1.4189235 69:-1.1147061 70:-1.08256 71:0.095704374 72:-1.1310117 73:-1.1821748 74:-0.14528086 75:-0.45532236 76:-1.377421 77:-0.89690631 78:-0.1481073 
0.028770325597335389 1:0.79203428 2:-0.27784203 3:-0.41454824 4:-0.12741422 5:1.5761248 6:-0.38859239 7:-0.88204334 8:0.1015639 9:0.06362102 10:1.3070996 11:-0.85366434 12:0.019082563 13:0.79782619 14:0.66373211 15:-0.39824015 16:-0.43611173 17:-0.27178488 18:1.6686453 19:-0.37644009 20:-0.99516108 21:0.15445953 22:0.18460292 23:1.3867973 24:-0.91357213 25:-0.075819945 26:0.79502595 27:0.95065492 28:-0.55865409 29:-0.19124499 30:0.12232476 31:0.27729979 32:0.2614069 33:-0.56942927 34:0.73209132 35:0.19694523 36:0.68900071 37:-0.15221917 38:0.20368494 39:0.39308219 40:0.89517737 41:0.57845563 42:-0.39503312 43:-0.11379576 44:0.17027274 45:-0.55346568 46:-0.10202333 47:-1.0293165 48:-0.4129466 49:-0.18986145 50:0.021296094 51:-0.54974336 52:-0.55561122 53:1.1070621 54:0.80649092 55:-0.35358248 56:0.0054695774 57:0.31757861 58:-0.64733574 59:-0.0066231403 60:-1.2967324 61:-0.38516342 62:-0.123364 63:0.11438925 64:-0.5596209 65:-0.64241802 66:-0.86135653 67:0.33335552 68:0.24315207 69:-0.20707514 70:-0.20390855 71:-0.5408671 72:0.37571162 73:-0.78193252 74:-0.68101377 75:0.86473743 76:-0.17609716 77:-0.71887691 78:-0.37647694 
1 1:0.15389609 2:0.74460933 3:0.39835811 4:1.5683887 5:0.7597381 6:-0.060890135 7:-0.1042095 8:0.49741252 9:0.61246136 10:-0.81021235 11:-0.68733656 12:-0.72345593 13:0.089734393 14:0.092553504 15:0.66426935 16:0.3516144 17:1.5198994 18:0.72420538 19:-0.084377417 20:-0.10746269 21:0.49104818 22:0.65609434 23:-0.77805471 24:-0.72513921 25:-0.65836702 26:0.11198729 27:0.58889901 28:0.68273654 29:0.67299372 30:1.6695184 31:0.96113766 32:-0.089487562 33:-0.27576503 34:0.71160189 35:0.02176247 36:-1.0356852 37:-0.31300518 38:-0.16837367 39:0.41602969 40:-0.74308509 41:-0.22713963 42:-0.59544096 43:-0.70901173 44:-0.86703363 45:-0.73624551 46:-0.89139133 47:-0.79054479 48:0.18334153 49:-0.75622727 50:-0.71020724 51:-0.22495231 52:-0.6439603 53:-0.93204538 54:-0.05579499 55:-0.67568523 56:-0.98139059 57:-1.0626299 58:-0.95872073 59:-1.0716162 60:-0.92256492 61:0.29702384 62:-0.80957266 63:-0.7897501 64:-0.1682406 65:-0.76849646 66:-0.28000726 67:-0.6981726 68:-0.75325576 69:-0.61002343 70:-1.2392101 71:-1.0117625 72:-0.93915546 73:-1.0337446 74:-0.14611822 75:-0.75097069 76:-0.7926029 77:-0.11619926 78:-0.86811837 
1 1:-0.67686283 2:0.43895004 3:0.31927701 4:0.62170762 5:-0.19504438 6:0.47032622 7:-0.59153869 8:-0.16131731 9:-0.034714918 10:0.10491814 11:0.1666467 12:-0.041374373 13:-0.09723551 14:-0.69589589 15:0.52691929 16:0.34203011 17:0.65713118 18:-0.20342213 19:0.4509929 20:-0.66420219 21:-0.18827074 22:0.028631005 23:0.098246492 24:0.19985321 25:-0.014152761 26:-0.20013117 27:-0.26041162 28:-0.24156865 29:0.28191633 30:0.23014556 31:-0.11630637 32:0.26729928 33:-0.99056808 34:-0.37460533 35:0.22674759 36:-0.6361503 37:-0.050335694 38:-0.38644047 39:-0.4796895 40:-0.78276086 41:-0.71403534 42:-0.13156618 43:-0.23948391 44:-0.21198064 45:-0.15659715 46:-0.29555768 47:-0.79308501 48:-0.9327712 49:-0.13788985 50:-0.13623284 51:-0.35041872 52:0.062717219 53:-1.0268201 54:-0.82145035 55:0.012631394 56:-0.17456697 57:-0.13346114 58:-0.065899662 59:-0.24230559 60:-0.92634402 61:-1.0726686 62:-0.06463807 63:-0.067593576 64:-0.3160468 65:0.16418423 66:0.66395884 67:-0.64644544 68:-0.52634119 69:-0.74930232 70:-0.23456116 71:-0.69731874 72:-0.086474843 73:-0.37575755 74:-0.97485918 75:-0.50601846 76:-0.53017192 77:-0.57869139 78:-0.35539247 
0.7436799389387776 1:2.0668776 2:0.609992 3:-1.1549951 4:-0.02596518 5:-0.89112185 6:1.2276384 7:1.0692749 8:0.08390093 9:0.70798946 10:-0.74158355 11:0.64840687 12:0.088240016 13:1.1347816 14:1.9964255 15:0.73236767 16:-1.3733083 17:-0.046573992 18:-0.93565241 19:1.3495182 20:1.0369407 21:0.21550469 22:0.74385169 23:-0.58531261 24:0.72463998 25:-0.0011930208 26:1.0266356 27:2.3523297 28:0.40636901 29:-1.4664778 30:0.31446323 31:-0.33193897 32:0.44452874 33:0.51003133 34:-0.066843248 35:0.37440207 36:-1.4806061 37:-1.1646047 38:-0.29370426 39:0.19916328 40:-0.40938296 41:-0.34958064 42:1.837865 43:-0.39198418 44:-0.15008956 45:0.76137807 46:1.1301355 47:0.844145 48:-0.38690408 49:1.6332971 50:0.79508455 51:0.052844956 52:1.0064236 53:-0.32080595 54:-0.21988945 55:1.9081654 56:-0.40944312 57:-0.056941374 58:1.002528 59:1.2678602 60:1.0020217 61:-0.35332909 62:1.6588914 63:0.93401198 64:0.14570051 65:1.2154028 66:-2.0371094 67:-0.65195682 68:1.4590863 69:-0.45227084 70:0.62213192 71:0.37681324 72:0.25774426 73:0.015410241 74:-0.30741914 75:0.28472492 76:0.34137028 77:-0.34945485 78:0.85025166 
1 1:0.21098199 2:-0.64713374 3:0.40689811 4:-1.2132897 5:0.1877261 6:-0.59224502 7:-0.38958671 8:1.7317595 9:-0.84048921 10:-0.71068057 11:1.3360921 12:-1.8558228 13:0.2476655 14:0.24962552 15:-0.56895959 16:0.43338723 17:-1.0090273 18:0.057330448 19:-0.60368556 20:-0.33814459 21:1.6946509 22:-0.86969837 23:-0.64469715 24:1.1484179 25:-1.7581328 26:0.18403006 27:0.49692676 28:-0.15229723 29:0.5197547 30:-1.0154677 31:0.89354631 32:-0.4431261 33:-0.30997648 34:2.2176071 35:-0.17768028 36:0.026878733 37:1.6454801 38:-0.82472339 39:-0.021408763 40:-0.4453749 41:-0.56583763 42:-0.16266473 43:-0.33696354 44:-0.66815936 45:-0.029503117 46:-0.74197408 47:-0.81162729 48:-0.11557969 49:0.24069887 50:-0.16688649 51:-0.15194077 52:-0.41492772 53:-0.37651075 54:-0.54972854 55:-0.027997215 56:-0.32236852 57:-0.75241319 58:0.10074865 59:-0.84533565 60:-0.95404871 61:-0.033504747 62:0.34574008 63:-0.10371868 64:-0.084024403 65:-0.44793591 66:-0.32652933 67:0.46503908 68:-0.62494056 69:0.96495524 70:-0.83389705 71:-0.011649879 72:-0.54953583 73:-1.0866101 74:-0.026366796 75:-0.31745647 76:0.68924176 77:1.2858683 78:-0.64764116 
0.6252572116228633 1:2.2430955 2:1.1525695 3:1.3337679 4:-2.7287523 5:-0.5653655 6:-0.28507988 7:4.2375953 8:1.8844078 9:-4.4376531 10:-0.17672659 11:-0.6443115 12:0.35670099 13:-0.27356723 14:2.0921653 15:0.94815457 16:1.0991405 17:-2.5701763 18:-0.71669938 19:-0.39381575 20:4.0674892 21:2.0320139 22:-4.1753735 23:0.070027313 24:-0.60973944 25:0.36144485 26:-0.052925693 27:1.3230131 28:1.2770869 29:0.79298147 30:-2.0259203 31:-0.12851207 32:-0.49236063 33:4.1271469 34:0.91693168 35:-3.6767571 36:-0.16195365 37:-0.78770531 38:1.0138722 39:-0.66769002 40:5.6865905 41:-0.52450331 42:0.31067887 43:0.69198995 44:0.39144361 45:1.9193717 46:0.12493376 47:0.48889893 48:2.1919983 49:-0.07138543 50:1.8980474 51:-0.11692182 52:2.8069863 53:3.9520779 54:-0.48170681 55:0.53593069 56:0.97259373 57:0.55826582 58:2.0673081 59:0.25452473 60:0.64440069 61:2.1375055 62:0.0096162523 63:1.9480399 64:-0.044077511 65:2.869301 66:-1.0951412 67:-1.0434166 68:-1.0226207 69:3.2049984 70:0.41062946 71:0.54484905 72:4.8061943 73:-0.35580927 74:6.0186125 75:-0.58043848 76:0.67919557 77:-0.42392596 78:1.1788467 
1 1:-0.2845674 2:-0.55912173 3:0.57456655 4:-0.17371582 5:0.66445529 6:-2.3792544 7:1.5700378 8:-0.063003568 9:0.057643025 10:-1.4360255 11:1.0854181 12:-0.7280302 13:0.2005931 14:-0.26966505 15:-0.41678536 16:0.57854398 17:-0.025546173 18:0.79213761 19:-2.276772 20:1.6256888 21:-0.057305367 22:0.053644743 23:-1.4682707 24:0.98035819 25:-0.78561781 26:0.27080189 27:0.15012233 28:-0.085214059 29:1.4861476 30:0.17463708 31:0.60403759 32:-2.4665988 33:2.0889936 34:0.4730634 35:0.50322457 36:-0.84031902 37:0.99319072 38:0.38452799 39:-0.17267271 40:-0.62709174 41:-0.68869816 42:-0.93388811 43:-0.55235924 44:-0.4582118 45:-0.45865373 46:-0.3521141 47:-0.67898617 48:-1.0741991 49:-0.49506081 50:-0.34955095 51:-1.0473942 52:-0.79747046 53:-0.69006831 54:-0.77125833 55:-1.3862902 56:-0.6814468 57:-0.45415269 58:-0.49832481 59:-0.3137559 60:-0.76028254 61:-1.2809752 62:-0.48174887 63:-0.32421046 64:-1.2254592 65:-0.99564538 66:0.22427643 67:0.35154345 68:-1.0779684 69:-0.39270343 70:-0.94191157 71:2.6896893 72:0.23083192 73:-0.43943357 74:-1.0647314 75:0.075581265 76:0.23419005 77:-0.59556508 78:-0.96575927 
1 1:-0.20690928 2:1.689027 3:0.86955013 4:0.61319731 5:0.12423765 6:-1.6795456 7:-0.041033709 8:0.29437517 9:-0.42618611 10:-0.9123276 11:0.92028214 12:-0.83986948 13:0.12884796 14:-0.27436317 15:1.4333306 16:0.92804501 17:0.45414453 18:0.11095147 19:-1.3595264 20:-0.042269332 21:0.37995483 22:-0.24553406 23:-0.9280856 24:0.83948326 25:-0.87968637 26:0.14319942 27:0.15616073 28:1.8491306 29:0.025893837 30:0.63944905 31:0.29372568 32:-1.4771402 33:-0.20746484 34:0.099872116 35:-1.7227842 36:-0.74967929 37:0.23092857 38:-0.46207619 39:-0.45491026 40:-0.65101587 41:-0.58340543 42:0.15956515 43:0.16872891 44:-0.037990802 45:0.7420112 46:-0.065914845 47:-0.10030307 48:3.7298664 49:-0.22925245 50:0.76973806 51:-0.074663806 52:1.4350265 53:-0.73655835 54:-0.57951766 55:0.36712509 56:0.37579095 57:0.078010197 58:0.98259139 59:0.035957691 60:-0.010002804 61:3.2782183 62:-0.16829562 63:0.9088243 64:0.0037536141 65:1.6430984 66:0.13486638 67:-0.99305603 68:-0.90763342 69:-0.48634341 70:-0.43945623 71:1.8219927 72:-0.50488606 73:-0.53098206 74:0.97582946 75:-0.39659788 76:0.59881602 77:0.070185506 78:0.48392388 
1 1:-0.269808 2:0.1676315 3:-0.040365452 4:-0.032800605 5:0.81058393 6:0.55308195 7:-0.8022216 8:0.36460217 9:0.41579153 10:-0.031164188 11:-0.46409414 12:-0.55166785 13:-0.46936994 14:-0.55110192 15:0.50916579 16:-0.0095929204 17:-0.05205555 18:0.70231383 19:0.28319463 20:-0.75684349 21:0.40333167 22:0.23730521 23:-0.25493787 24:-0.39680234 25:-0.62965028 26:-0.58434863 27:-0.32001144 28:0.13706397 29:0.14748241 30:-0.055322455 31:1.2083772 32:0.011972681 33:-1.9254219 34:0.36680694 35:-0.08562186 36:0.084506356 37:0.35201959 38:-0.10755478 39:-0.10345774 40:1.2030783 41:-0.21499203 42:-0.43309063 43:-0.21913257 44:-0.23463799 45:1.6057752 46:0.5299681 47:-0.52288727 48:1.6000514 49:0.14074789 50:-0.78768237 51:-0.2466555 52:-0.66626778 53:1.3601137 54:-0.040202967 55:-0.41128544 56:-0.1446584 57:-0.16185406 58:1.7999408 59:0.68726015 60:-0.54414141 61:1.6473566 62:0.2401882 63:-0.89589097 64:-0.19352351 65:-0.80084661 66:0.29537462 67:-0.24237257 68:-0.20839164 69:-0.34910069 70:-0.80922533 71:0.25100602 72:0.5047913 73:-0.78598261 74:0.27869797 75:-0.43419439 76:-0.99839908 77:-0.2676625 78:-0.77425037 
0.45938010364237991 1:-0.56513272 2:0.87016238 3:1.4444359 4:0.21584424 5:0.32908497 6:-0.10637705 7:-0.2005329 8:0.77449517 9:0.43658963 10:0.25223281 11:0.51705628 12:0.26734264 13:-0.75258026 14:-0.59493632 15:0.79754132 16:1.4720793 17:0.26481169 18:0.35398682 19:-0.05852195 20:-0.19982488 21:0.7994491 22:0.35582911 23:0.20031457 24:0.51028009 25:0.21613131 26:-0.78651219 27:-0.2184018 28:1.0182701 29:1.6944859 30:0.23559493 31:1.07324 32:0.75537405 33:0.97788711 34:1.3813203 35:0.78071211 36:0.72630084 37:0.96889192 38:1.0024265 39:0.55784936 40:-0.64505574 41:-0.70835698 42:-0.58446397 43:-0.67052643 44:-0.95228813 45:-0.88527141 46:-1.1976015 47:-0.7788786 48:-0.88243621 49:-0.91998884 50:-1.2524398 51:-0.97511645 52:-1.0031956 53:-0.72483362 54:-0.81004109 55:-0.6567383 56:-0.90381401 57:-1.2060982 58:-1.2435766 59:-1.5921099 60:-0.90525895 61:-1.0010735 62:-1.0270465 63:-1.592638 64:-1.1227172 65:-1.3186147 66:0.54250091 67:-1.0081465 68:-1.4655334 69:-0.85472818 70:-1.133761 71:-1.0936152 72:-1.0472604 73:-1.2041186 74:-0.78551185 75:-0.81075641 76:-1.0707248 77:-1.0154722 78:-0.82547001 
0.27263436084185488 1:-0.59814691 2:0.43176473 3:-0.31211378 4:-0.85324097 5:-0.44114616 6:-0.99265525 7:0.37204436 8:-1.0713419 9:-0.051287976 10:-0.51775477 11:0.43440684 12:1.1540922 13:-0.89340458 14:-0.69022706 15:0.41676969 16:-0.23347236 17:-0.84235442 18:-0.38845455 19:-0.97350207 20:0.32301952 21:-1.0026964 22:0.0046909488 23:-0.6133608 24:0.41373933 25:0.92231716 26:-0.92063499 27:-0.085459612 28:0.82138185 29:0.049375152 30:-0.22495357 31:-0.21590752 32:-0.27830965 33:0.72082708 34:-0.70372591 35:0.10796457 36:-0.37350936 37:0.90161193 38:0.61192392 39:-0.26910542 40:-0.7305757 41:-0.79687891 42:-0.65084417 43:-0.66432868 44:-0.31784314 45:-0.59482677 46:-0.51181909 47:0.44869368 48:-0.45804146 49:-0.059148343 50:-0.38164351 51:0.16600906 52:-0.40160995 53:-0.90366909 54:-1.0004544 55:-0.77413278 56:-0.89158162 57:-0.26796889 58:-0.71479779 59:-0.522653 60:0.60237293 61:-0.44079972 62:0.023172958 63:-0.36392603 64:0.26884416 65:-0.42989936 66:0.57641532 67:-0.67142061 68:0.066666767 69:0.3829584 70:-0.0063844167 71:0.30034279 72:-0.89999531 73:1.1269147 74:-0.70297898 75:-0.5488809 76:-0.52292377 77:0.23466482 78:-0.25829292 
0.52639995720388399 1:0.24477392 2:0.14241349 3:-0.42735174 4:-2.6519055 5:-0.35685603 6:-2.3205475 7:2.4373478 8:-1.9916106 9:0.55494175 10:-1.7275758 11:1.6805938 12:0.71887887 13:-1.9703733 14:0.44993175 15:0.10999926 16:-0.36485056 17:-2.2603292 18:-0.27291649 19:-2.6251337 20:2.3961684 21:-2.0298834 22:0.3860387 23:-1.8318685 24:1.7681534 25:0.52067787 26:-2.0513571 27:-0.24662725 28:-0.41591924 29:-0.076472857 30:-3.0194738 31:-0.6439525 32:-2.5949375 33:1.1943491 34:-2.6578982 35:-0.50640149 36:-2.0632863 37:-0.24803115 38:-0.65580253 39:-1.5640831 40:0.78953311 41:-0.26723814 42:-0.56233614 43:2.837984 44:-0.23794247 45:3.7153931 46:3.3331112 47:2.6876902 48:1.9192551 49:1.0364064 50:2.0051601 51:2.3846826 52:1.0396778 53:1.0155651 54:-0.10809864 55:-0.61906458 56:2.8161263 57:-0.16601257 58:3.4031126 59:3.0183529 60:2.5764934 61:1.9159108 62:1.127411 63:2.0392559 64:2.3087049 65:1.2495328 66:-0.28897798 67:-0.23427409 68:0.22540507 69:3.4872902 70:-0.070490773 71:3.4785101 72:2.4912641 73:2.7629645 74:0.46024678 75:1.013433 76:2.082818 77:0.93962119 78:1.7543462 
0.52223340045558309 1:0.83668703 2:0.59639828 3:1.0692261 4:-0.18107626 5:-1.0827428 6:-0.60712446 7:0.66873168 8:1.7414416 9:-1.298742 10:0.42569177 11:1.568572 12:0.75125503 13:0.33978642 14:0.95321148 15:0.65757642 16:0.77372944 17:-0.21639256 18:-1.0623335 19:-0.74411237 20:0.63243578 21:1.7953495 22:-1.3414745 23:0.54671639 24:1.6457065 25:0.90849588 26:0.37626354 27:-0.12053642 28:0.73773705 29:0.69178143 30:-0.64260541 31:-0.6902219 32:-0.97991525 33:0.66877139 34:1.2370577 35:-0.80862555 36:0.55611327 37:1.5790087 38:0.23784519 39:0.015828468 40:1.220113 41:-0.81975511 42:0.65073314 43:0.31855281 44:-0.65549452 45:1.4354586 46:-0.28692006 47:-0.49439332 48:-0.096631048 49:-0.42392198 50:0.036593151 51:0.82086654 52:0.48506678 53:1.373582 54:-1.0549193 55:0.88699319 56:0.5567768 57:-0.73365182 58:1.6489672 59:-0.23150154 60:-0.50592431 61:-0.011917306 62:-0.39601584 63:0.13174782 64:0.93662539 65:0.65628491 66:-0.87972286 67:-0.83662836 68:-0.83245578 69:0.046028291 70:0.7177383 71:0.6249388 72:-0.68031441 73:-0.90538201 74:0.54260998 75:-0.38965191 76:1.1393861 77:0.25196769 78:-0.0064197575 
0.62376632543993504 1:0.62707715 2:0.96075118 3:-0.084039996 4:1.1908534 5:-1.759009 6:-1.7208421 7:1.2392007 8:-0.96454513 9:0.054412297 10:-1.0673964 11:-1.6638835 12:-0.51025299 13:-0.20350588 14:0.47631586 15:0.94203785 16:-0.13443232 17:1.2572771 18:-1.4861117 19:-1.586944 20:0.97605402 21:-1.0707459 22:-0.024049304 23:-0.99174265 24:-1.7612385 25:-0.41559476 26:-0.26436599 27:0.7853939 28:0.96299146 29:-0.3957913 30:0.14217705 31:-5.1537781 32:-2.0832035 33:-1.1180533 34:-1.225601 35:-0.67906795 36:-1.878441 37:-2.4032342 38:-0.6990219 39:-0.68600629 40:0.39637378 41:-0.52798083 42:-0.081484248 43:0.5185627 44:3.8615307 45:0.082673907 46:4.2057023 47:1.1630629 48:1.4310025 49:1.2800518 50:0.88438157 51:0.78734235 52:1.1030479 53:0.64880761 54:-0.48732386 55:0.076818935 56:0.7850967 57:3.3701296 58:0.24174863 59:3.6063563 60:1.3045935 61:1.5007194 62:1.3492525 63:1.0219748 64:0.90408366 65:1.3141099 66:-0.72765491 67:-0.96494283 68:-0.075989374 69:-0.19933432 70:2.729921 71:1.7048825 72:1.4018927 73:1.1833544 74:0.12556424 75:0.36937322 76:1.1937907 77:0.25182888 78:0.29943028 
1 1:0.1893335 2:-0.85094177 3:-0.32191622 4:-0.82747555 5:1.1857843 6:-1.2282698 7:-0.43891259 8:0.78514409 9:-0.17551501 10:-0.040284211 11:0.14282927 12:-0.32451161 13:0.33425801 14:0.17628535 15:-0.75310254 16:-0.33855605 17:-0.81236776 18:1.1360119 19:-1.2684373 20:-0.32696079 21:0.71666584 22:-0.16095219 23:-0.063793335 24:0.25364416 25:-0.16886957 26:0.44121577 27:0.65672868 28:-0.31487262 29:-0.38971668 30:0.0056286808 31:1.7146299 32:-0.57103123 33:0.21283668 34:1.5031106 35:0.057331484 36:0.33232975 37:0.85438627 38:0.22274243 39:0.84128214 40:-0.74779064 41:-0.67206077 42:0.0018919593 43:-0.34199417 44:-0.96764808 45:-0.33635664 46:-0.65376195 47:-0.76354708 48:-0.21061416 49:-0.67005591 50:-0.66737606 51:-0.8206851 52:-0.77021957 53:-0.9428935 54:-0.73925522 55:0.18052526 56:-0.33021409 57:-1.2327335 58:-0.31625836 59:-0.71829999 60:-0.88263882 61:-0.14318666 62:-0.69899409 63:-0.73208504 64:-0.91059908 65:-0.95452323 66:-0.32053443 67:0.65533103 68:0.21312173 69:0.47250542 70:-1.1571456 71:0.77517054 72:-0.44414911 73:-1.1997859 74:-0.55068662 75:-0.86362323 76:-0.91379788 77:-0.7763232 78:-0.88642582 
0.2697936162597378 1:0.84765042 2:-0.3008295 3:-0.52052286 4:-0.39333019 5:-0.10483321 6:-1.0243641 7:-1.1009636 8:1.0198595 9:-0.37527468 10:0.55976585 11:-1.1740236 12:1.486072 13:1.6388106 14:0.83702155 15:-0.42204006 16:-0.51990971 17:-0.23672591 18:0.01260684 19:-1.0414979 20:-1.0354336 21:0.99193434 22:-0.42511306 23:0.60455489 24:-1.1386723 25:1.447091 26:1.6414649 27:1.1515265 28:-0.18760871 29:-0.36865674 30:-1.1675823 31:0.30626969 32:-0.78722621 33:-1.2697291 34:0.19174112 35:0.27749102 36:0.85817016 37:-1.5642542 38:1.4175691 39:0.90710105 40:-0.37226781 41:0.32597933 42:-0.51638454 43:0.11800078 44:-0.64609163 45:0.11038975 46:0.8530438 47:1.0920805 48:-0.80042171 49:-0.45720464 50:0.15419064 51:-0.15747675 52:0.36497411 53:-0.26509507 54:0.56560908 55:-0.54291465 56:0.31230462 57:-0.71979177 58:0.27578423 59:1.0075801 60:1.2386102 61:-0.88701277 62:-0.43595003 63:0.26344851 64:-0.090365536 65:0.52034109 66:-1.0300294 67:0.30347054 68:0.34796416 69:0.16081841 70:-0.54057868 71:0.63060071 72:1.0025862 73:-0.34547981 74:-0.76142248 75:-0.26151191 76:0.22536129 77:0.43513841 78:1.123697 
1 1:0.12536611 2:0.35583505 3:0.01658292 4:-0.56478574 5:-0.2144609 6:-0.40689021 7:-0.90163932 8:0.18165479 9:-0.10140571 10:-0.19246599 11:-0.3270003 12:-0.20008194 13:0.47512705 14:0.027556363 15:0.84187228 16:0.19716169 17:-0.39034455 18:-0.31743463 19:-0.46883465 20:-0.86746345 21:-0.012573396 22:-0.22881796 23:-0.15560186 24:-0.272575 25:-0.10739771 26:0.51331098 27:0.032170193 28:-0.59752563 29:-2.051188 30:-0.71892594 31:-0.30912295 32:-0.39090038 33:-1.373854 34:0.52444018 35:-0.29645613 36:-0.4802065 37:-0.20010665 38:-0.56624095 39:0.03671319 40:0.86029693 41:1.530674 42:0.20747215 43:-0.24810932 44:0.66890468 45:0.0096186838 46:0.42135698 47:-0.24741992 48:0.32395325 49:-0.0073376537 50:0.84909016 51:1.2623543 52:0.14691459 53:1.0771404 54:1.578317 55:0.42162406 56:-0.18733728 57:0.8433672 58:0.15053351 59:0.57492891 60:-0.18858104 61:0.44571679 62:0.080213682 63:0.98735317 64:1.3511451 65:0.26554425 66:-0.15500592 67:0.055754127 68:-0.12023611 69:0.19383548 70:0.1552196 71:-0.20461397 72:0.59303638 73:-0.4992359 74:-0.31746489 75:-0.55048992 76:0.021787043 77:0.34386305 78:-0.15457082 
0.67348839362595092 1:-0.37219499 2:0.65022325 3:-0.84636887 4:-2.1752576 5:-0.34344062 6:-0.74903575 7:0.42560724 8:0.22909188 9:0.12257218 10:-2.0699861 11:-1.5077864 12:-0.58907793 13:-0.30595918 14:-0.39591887 15:0.70830858 16:-0.70004996 17:-2.1666931 18:-0.12651519 19:-0.76947938 20:0.21477811 21:0.24194234 22:0.15547724 23:-1.9126119 24:-1.5762299 25:-0.53887668 26:-0.10509466 27:-0.30008398 28:0.86674483 29:-0.63047947 30:-2.0878093 31:-0.36220225 32:-0.4221772 33:0.3771066 34:-0.23283416 35:-0.45082885 36:-1.4423059 37:-0.61539347 38:-0.68550956 39:-0.40858355 40:-0.63086954 41:-0.7543148 42:-0.20579417 43:0.13393017 44:0.23397536 45:-0.2001634 46:-0.41959133 47:0.37938291 48:1.6352168 49:0.089152932 50:0.29839097 51:0.94584429 52:1.4086234 53:-0.69730983 54:-0.90532463 55:-0.085381709 56:0.33236864 57:0.38825248 58:-0.12489308 59:-0.40068007 60:0.52910896 61:1.6774623 62:0.18495125 63:0.4209469 64:1.0565561 65:1.6174769 66:0.32368267 67:-0.85479035 68:0.79912834 69:2.3555536 70:0.10928136 71:0.11309662 72:-0.8382518 73:-0.27744103 74:0.20693772 75:1.2150116 76:0.71759923 77:0.37756417 78:0.4888046 
1 1:-0.68223573 2:-2.3111145 3:1.3740936 4:0.71726441 5:0.25094435 6:1.1963121 7:-0.95515231 8:1.4274277 9:0.74960776 10:-0.14687597 11:-0.75616013 12:-0.69231188 13:-0.25068176 14:-0.48077323 15:-2.1753074 16:1.3698527 17:0.75996743 18:0.38211132 19:1.279876 20:-0.9294036 21:1.403842 22:0.71713166 23:0.018147554 24:-0.62675278 25:-0.70520355 26:-0.063268533 27:-1.2761729 28:-1.4388198 29:1.375536 30:1.1232424 31:0.23200582 32:1.1679072 33:-0.19792167 34:1.5863421 35:0.28079349 36:0.53037256 37:-0.41271148 38:-0.35927417 39:-0.0048255179 40:0.060126633 41:0.23825979 42:-0.58148362 43:-0.66385006 44:-0.28685152 45:-0.22798276 46:-0.78370951 47:-0.96584394 48:-0.72418833 49:-0.67536439 50:-0.74392509 51:-0.31803296 52:-0.72467751 53:0.29164801 54:0.47679843 55:-0.65162406 56:-0.89063987 57:-0.22809626 58:-0.16310188 59:-0.9070574 60:-1.1932338 61:-0.78368296 62:-0.70573425 63:-0.83564682 64:-0.27750771 65:-0.8865885 66:0.70489915 67:2.2760682 68:-1.4666869 69:-1.1039216 70:-0.6605876 71:-0.10668647 72:0.2184561 73:-1.3619429 74:-0.41798176 75:-0.90320339 76:-0.75775475 77:-0.19488755 78:-0.91494607 
1 1:1.6434309 2:-0.69923381 3:0.36144909 4:0.90312732 5:-0.7300113 6:-0.80472951 7:0.025103986 8:-2.4420215 9:-0.53206593 10:2.0981386 11:0.19082825 12:0.45856943 13:-0.39452017 14:1.6235811 15:-0.9796894 16:0.40158557 17:0.91874704 18:-0.65216918 19:-0.73940177 20:0.058121354 21:-2.3061253 22:-0.33913464 23:2.1497194 24:0.28848458 25:0.35441854 26:-0.40565628 27:1.8071954 28:-0.51377962 29:0.32065526 30:1.2161212 31:-0.46018863 32:-0.0096678688 33:-0.26261801 34:-1.8681475 35:-0.1177597 36:1.0586373 37:0.14560146 38:1.0977964 39:0.21976864 40:-0.66426927 41:0.85450378 42:-0.43199223 43:-0.22870892 44:-0.68797332 45:-0.49922323 46:0.33390355 47:0.48175328 48:-0.32276767 49:0.064077739 50:-0.46223287 51:-1.1247576 52:-0.35707152 53:-0.76298805 54:1.0493246 55:-0.40959981 56:-0.15869337 57:-0.78198369 58:-0.56117467 59:0.48259537 60:0.63695586 61:-0.27582118 62:0.15791543 63:-0.46503824 64:-1.338121 65:-0.3700259 66:-1.9079264 67:0.76316009 68:-0.6605693 69:-0.73843361 70:0.21435747 71:0.054904624 72:-0.33848536 73:2.955081 74:-0.40611194 75:2.2347462 76:-0.74100301 77:-1.066396 78:-0.57839553 
1 1:0.52635699 2:-0.1924395 3:0.45711445 4:1.1179726 5:-0.24587692 6:0.10471464 7:0.2754747 8:0.8159526 9:1.045177 10:-0.99026455 11:-0.79181922 12:0.25200115 13:-0.32864575 14:0.4353677 15:0.80557725 16:0.36272944 17:1.0847245 18:-0.054482901 19:0.16021674 20:0.31404049 21:0.77098626 22:0.9537296 23:-0.90440092 24:-0.81896145 25:0.076079285 26:-0.38623769 27:0.86031387 28:-1.2552306 29:0.65214581 30:0.80415232 31:-0.50707897 32:-0.19496639 33:-0.55701055 34:0.13094808 35:-0.35790219 36:-1.3569216 37:-0.28317168 38:0.25056367 39:-1.1297389 40:-0.40732024 41:2.5414715 42:-0.500568 43:-0.45762469 44:0.16941819 45:-0.3096387 46:-0.2755185 47:0.26183876 48:0.0040684399 49:0.42544182 50:-0.22322815 51:0.48903571 52:0.23950873 53:-0.31766506 54:2.2527396 55:-0.51731376 56:-0.5172382 57:0.3166227 58:-0.27783299 59:-0.21728326 60:0.40239944 61:0.10130776 62:0.53607469 63:-0.1707553 64:0.60711076 65:0.37505037 66:-0.67741224 67:0.62821062 68:-0.78510039 69:-0.81948426 70:-0.016795155 71:-0.79169561 72:-0.74829303 73:-0.66603676 74:0.21448092 75:-0.036022109 76:-0.37895199 77:-0.097219842 78:-0.19354588 
0.51411640877890608 1:-0.11603307 2:1.3622433 3:1.7142357 4:-0.13748179 5:0.44457872 6:0.054226407 7:-0.21902493 8:-0.030412763 9:0.078910516 10:-0.95010055 11:-0.24943824 12:-0.39186185 13:0.098342801 14:-0.14108803 15:1.2947179 16:1.6922134 17:-0.14575376 18:0.15584184 19:0.03455037 20:-0.16959052 21:-0.25780533 22:-0.0098550428 23:-1.0400746 24:-0.28805911 25:-0.83957463 26:-0.2475912 27:0.26697223 28:1.4692223 29:1.1652931 30:0.12816999 31:0.27107869 32:0.11130399 33:-0.37614685 34:1.1030912 35:-0.24701221 36:-0.83877945 37:0.27538564 38:-0.50563867 39:0.70892162 40:-0.60194619 41:-0.83323059 42:0.46523603 43:-0.25698156 44:0.5688165 45:-0.5742867 46:-0.37398735 47:-0.49955697 48:-0.4199277 49:0.27429967 50:0.030175795 51:1.4677988 52:0.64205572 53:-0.64275971 54:-1.0882809 55:0.69996598 56:-0.20053274 57:0.74249452 58:-0.68109724 59:-0.34172817 60:-0.51282335 61:-0.39373357 62:0.38080693 63:0.12447215 64:1.5359305 65:0.82970788 66:0.034215315 67:-1.3003549 68:-0.8967423 69:-0.27085929 70:-0.32205586 71:-0.96328829 72:-0.53159798 73:-0.39883916 74:-0.68327408 75:-0.13487635 76:-0.48559855 77:0.51324475 78:0.025251184 
1 1:-0.76025604 2:0.51189169 3:-0.18869612 4:-0.83180286 5:-0.22471732 6:-0.33091596 7:-0.31924175 8:0.814308 9:-0.22025181 10:-1.5499105 11:-0.6613822 12:0.34170897 13:-0.39924543 14:-0.79423816 15:0.52946534 16:-0.1149721 17:-0.77260918 18:-0.1829318 19:-0.30016253 20:-0.32435482 21:0.86207909 22:-0.40332975 23:-1.5065354 24:-0.55130316 25:0.47528 26:-0.22646832 27:-0.49956151 28:-0.053130456 29:0.040167471 30:-0.80301987 31:-1.743775 32:-0.75854869 33:-1.0862276 34:0.99370028 35:-0.57978807 36:-2.3380026 37:-0.37737188 38:-1.2686122 39:-0.15082408 40:-0.50037498 41:-0.53662727 42:0.14719165 43:0.027411734 44:0.81855806 45:-0.30703764 46:1.242981 47:-0.36676273 48:2.3462473 49:0.66223286 50:-0.37035309 51:2.2525689 52:-0.16494628 53:-0.46520911 54:-0.50137179 55:0.35289175 56:0.19584466 57:0.99040058 58:-0.2741163 59:1.3704857 60:-0.33896354 61:2.2598817 62:0.77175255 63:-0.34991887 64:2.2020269 65:-0.11914803 66:0.77047063 67:-0.64422406 68:0.09151907 69:0.61195277 70:0.22241779 71:-0.45922334 72:0.27986436 73:-0.98267287 74:0.47919966 75:0.65899546 76:-0.5767835 77:0.76479128 78:-0.43936869 
1 1:-0.44760804 2:0.92058611 3:-0.74163649 4:0.0034871157 5:0.25729788 6:-0.11459986 7:0.33645367 8:0.54649215 9:-0.39897232 10:-0.25464811 11:0.43531333 12:0.27925693 13:-0.2470363 14:-0.47832393 15:0.90983893 16:-0.69861996 17:0.034584849 18:0.2468346 19:-0.11404468 20:0.27181831 21:0.50827565 22:-0.26714603 23:-0.17818899 24:0.6313469 25:0.36451999 26:-0.21055302 27:-0.066051333 28:1.0695191 29:-0.18802359 30:0.46335779 31:0.89156391 32:0.29197798 33:1.2103939 34:1.0332237 35:0.15025181 36:0.49227257 37:0.31370003 38:-0.5481853 39:-0.34607349 40:-0.76209533 41:-0.92417656 42:-0.76875863 43:-0.61345535 44:-0.92321718 45:-0.64480206 46:-0.89394156 47:-0.91783689 48:-1.1004626 49:-1.2163686 50:-0.81415065 51:-0.1335011 52:-0.72623132 53:-0.97649215 54:-1.3479639 55:-1.0023785 56:-0.79367919 57:-1.156367 58:-0.79852005 59:-1.0756127 60:-1.1170061 61:-1.3209162 62:-1.4493579 63:-0.93271748 64:-0.062954481 65:-0.88889038 66:0.40347146 67:-1.1882351 68:0.57546691 69:-0.61543624 70:-1.0563426 71:-0.89433599 72:-1.1627094 73:-1.1451577 74:-0.91497648 75:-1.2648985 76:-0.82069494 77:-0.45007363 78:-0.91727038 
0.48967132288964821 1:0.28421982 2:0.21962282 3:-0.47183718 4:-1.8341306 5:-0.48069008 6:-0.61036987 7:2.1791253 8:0.19442089 9:0.46957329 10:-2.0821829 11:2.5971606 12:-0.040918666 13:-1.8326393 14:0.28898837 15:0.18765994 16:-0.40885231 17:-1.6623136 18:-0.38516598 19:-0.53581522 20:2.201258 21:0.21148714 22:0.38246358 23:-2.3278626 24:2.6767517 25:-0.088691358 26:-1.9009619 27:-0.03550445 28:-0.13118023 29:0.10844909 30:-1.5498233 31:-0.46751887 32:-0.75288914 33:0.81958034 34:0.61419652 35:0.33130989 36:-1.1879532 37:0.77482608 38:-1.6808399 39:-1.4875188 40:0.4549081 41:0.326828 42:-0.7993862 43:0.03161956 44:-0.58100362 45:-0.12527244 46:1.021843 47:-0.32948799 48:0.023314833 49:0.16189739 50:1.1893294 51:0.081814366 52:2.3696304 53:0.70640661 54:0.56645425 55:-1.0668223 56:0.20134657 57:-0.62540565 58:-0.024093455 59:1.1675913 60:-0.29142799 61:0.12266968 62:0.26268077 63:1.3138141 64:0.17747101 65:2.4984232 66:-0.35235174 67:-0.14145578 68:0.23300145 69:1.8792318 70:-0.068857306 71:-0.035067151 72:1.5548926 73:-0.54699805 74:-0.31644522 75:1.2560507 76:3.2730042 77:-0.31682033 78:2.1136262 
0.79928178916112969 1:1.6960378 2:-2.5132365 3:2.7863344 4:-0.52049451 5:-1.0004534 6:-0.60785883 7:-0.61172174 8:-0.15307464 9:0.22496948 10:-1.0904738 11:-0.53250659 12:0.64544053 13:-0.64350486 14:1.8682217 15:-2.4153806 16:2.8517215 17:-0.7716036 18:-1.027301 19:-0.61724846 20:-0.68018279 21:-0.091191807 22:0.18994404 23:-1.2225414 24:-0.66884373 25:0.7620509 26:-0.62591334 27:0.096697906 28:-2.134399 29:1.4320468 30:-0.7442252 31:-0.21685254 32:-0.087169623 33:-0.17989035 34:0.35390967 35:0.15602944 36:-0.46944695 37:-0.21180489 38:-0.190349 39:-0.22083735 40:2.7466481 41:0.82680159 42:0.47072453 43:1.3189201 44:-0.33891588 45:-0.50811265 46:-0.28937198 47:-0.58607117 48:-0.79364776 49:-0.97405185 50:-0.26568087 51:-0.45848384 52:-0.37774663 53:2.4218361 54:1.0257877 55:0.70564649 56:1.5875731 57:-0.29532458 58:-0.57512374 59:-0.23456557 60:-0.63020413 61:-0.87772915 62:-1.1011381 63:-0.22182872 64:-0.44669592 65:-0.39773507 66:-1.3810392 67:2.5408414 68:-0.034055803 69:0.73498768 70:0.70624863 71:-0.23096313 72:-0.058495005 73:-0.3004401 74:-0.85384034 75:-0.58423692 76:-0.58742885 77:-0.51087961 78:-0.44996446 
0.23394258045437247 1:0.1638234 2:0.17068203 3:-0.020032292 4:0.78424326 5:-0.1720267 6:-0.15889932 7:1.1298116 8:-1.532666 9:1.2409201 10:-0.14894358 11:-1.1434929 12:-0.84622957 13:1.3916475 14:0.18956272 15:0.25356684 16:-0.07169693 17:0.82083151 18:-0.20121725 19:-0.12591156 20:0.941354 21:-1.5344639 22:1.165619 23:-0.079808292 24:-0.95145217 25:-0.76460738 26:1.3691018 27:0.43884318 28:-0.47656394 29:-0.1285017 30:0.20982203 31:0.33477836 32:-0.11512732 33:1.0235569 34:-2.1738673 35:0.27035629 36:-0.76949779 37:-1.2264277 38:-0.47418369 39:-0.17548192 40:-0.53794921 41:-0.16381646 42:0.2934445 43:0.26432157 44:-0.44556463 45:-0.43930358 46:0.36628699 47:2.8446507 48:1.8947025 49:-0.48025439 50:-0.11573186 51:-0.076216338 52:1.6541403 53:-0.52860915 54:0.024269094 55:0.5171238 56:0.49233404 57:-0.43698012 58:-0.46880006 59:0.51698876 60:2.694825 61:1.8956192 62:-0.46378747 63:-0.04356673 64:0.0020034502 65:1.8523593 66:-0.27897198 67:-0.23101092 68:-0.061368128 69:-0.44237104 70:-0.36813419 71:-0.71014966 72:-0.0015456739 73:2.2342791 74:1.0395006 75:-0.79258104 76:0.0425912 77:0.07542577 78:1.4155362 
0.34192496764672103 1:-0.046241192 2:-0.027382749 3:0.52461961 4:-1.4126689 5:-2.4277082 6:-0.069358862 7:1.4769037 8:-0.78193686 9:0.51342274 10:-1.4023399 11:2.047084 12:-0.58554286 13:-0.75563796 14:-0.1247846 15:-0.047977348 16:0.54206219 17:-1.4633654 18:-2.4165765 19:-0.13625574 20:1.7224756 21:-0.89484845 22:0.38772792 23:-1.4653922 24:2.0676194 25:-0.42960224 26:-0.86799993 27:-0.34009469 28:0.29515955 29:0.51376349 30:-0.76946373 31:-1.5047845 32:0.024392543 33:0.5374578 34:-0.022255668 35:0.010261445 36:-1.5390005 37:1.5069904 38:-0.21876152 39:-0.71999612 40:1.47295 41:-0.38559212 42:-0.19644682 43:0.15263175 44:-0.074477019 45:0.01295091 46:2.4760802 47:-0.33653337 48:0.87921242 49:0.91470501 50:1.5949962 51:0.30137749 52:0.03885928 53:1.5677359 54:-0.27084291 55:-0.072839163 56:0.35577353 57:0.034579841 58:0.15474301 59:2.3913297 60:-0.30037233 61:0.99766324 62:1.0138238 63:1.6836955 64:0.41288399 65:0.1351413 66:0.064546537 67:-0.1086677 68:-0.75162069 69:1.3648343 70:2.8481407 71:-0.49289008 72:1.0978174 73:0.54338174 74:0.06336145 75:0.56978883 76:2.4858752 77:0.055081718 78:-0.091616446 
0.1615575853974113 1:1.5305068 2:-2.1033292 3:0.38459154 4:0.23374469 5:0.56908639 6:-0.47168869 7:-0.14554264 8:-0.89017034 9:-1.1167221 10:1.0922289 11:-0.087554725 12:-0.35849183 13:-0.25164612 14:1.5254935 15:-2.0210132 16:0.19957726 17:0.24618323 18:0.42357597 19:-0.54267125 20:-0.2311256 21:-0.78590329 22:-1.0631306 23:1.1660093 24:-0.092992973 25:-0.39670718 26:-0.26001615 27:1.2215977 28:-1.6270397 29:0.86327913 30:0.57011752 31:1.0312189 32:-0.0075201511 33:0.15297606 34:-0.10201367 35:-0.75712043 36:1.0036009 37:0.81239852 38:0.65329742 39:-0.87904233 40:-0.27567444 41:0.25623123 42:-0.03234206 43:-0.64033145 44:-0.83779043 45:-0.4311279 46:-0.64258606 47:-0.06808365 48:-1.0476484 49:-0.28002162 50:-0.89002476 51:-0.6325938 52:0.84355254 53:-0.12732104 54:0.49523413 55:0.13839963 56:-0.84485875 57:-1.0150002 58:-0.45641029 59:-0.70251842 60:0.028183568 61:-1.2410158 62:-0.22675773 63:-1.0399685 64:-0.66434001 65:1.0457374 66:-1.7227434 67:2.0648317 68:-0.56369277 69:-0.84696589 70:-1.1818869 71:-0.36760234 72:-0.74802038 73:0.75916142 74:-0.052881485 75:0.51116307 76:-1.1572375 77:-0.63159687 78:0.15857062 
0.42334461208420454 1:1.9881452 2:-1.3189885 3:-0.88674618 4:-0.64584745 5:0.97927328 6:0.025139192 7:-1.0898668 8:-0.4976644 9:0.45235588 10:1.1478154 11:1.3434492 12:-0.10616962 13:0.45776734 14:2.0895953 15:-1.107153 16:-0.91795671 17:-0.41126006 18:0.73126321 19:-0.075945046 20:-1.1550651 21:-0.31647318 22:0.41976786 23:1.1313324 24:1.5016067 25:-0.048997672 26:0.36357317 27:1.2877183 28:-0.933651 29:-0.20680713 30:-0.53359583 31:0.87727535 32:0.52424024 33:-0.19952653 34:-0.27757787 35:0.97785651 36:1.1596521 37:0.61396111 38:0.90788744 39:0.83466387 40:2.9063662 41:-0.62734465 42:-0.15501922 43:-0.10656675 44:-0.47979113 45:-0.41119178 46:-0.27430325 47:-0.36887377 48:-0.82882694 49:0.027045454 50:-0.042220227 51:-0.65330434 52:-0.73805059 53:2.5179007 54:-0.65658282 55:-0.017952058 56:0.015502872 57:-0.48364648 58:-0.42640467 59:-0.21577064 60:-0.34167164 61:-0.92616567 62:0.11775468 63:0.041731782 64:-0.69086028 65:-0.90643651 66:-1.427798 67:1.1480646 68:0.85634921 69:0.34481702 70:-0.92887288 71:-0.82528222 72:0.61305162 73:0.18195788 74:-0.74450534 75:0.69994454 76:0.75927036 77:-0.76022569 78:-0.78859417 
0.66581633711884136 1:0.52078416 2:1.1169676 3:0.15642738 4:0.49103009 5:-0.48793271 6:-1.022272 7:-0.62623944 8:0.47370877 9:0.099620216 10:0.2540486 11:0.081137532 12:1.6878 13:-0.99848007 14:0.53395575 15:1.1894826 16:0.21232511 17:0.13095109 18:-0.33991813 19:-0.93055367 20:-0.26615368 21:0.53559088 22:0.11061918 23:0.39315191 24:0.1425727 25:1.6043406 26:-0.83677257 27:0.27738778 28:0.23466857 29:-1.1074385 30:-1.1834412 31:-1.6354609 32:-1.4674294 33:-2.853913 34:-0.20150055 35:-0.86408594 36:-1.0431346 37:-1.5745478 38:0.78263535 39:-2.1711543 40:0.65950261 41:0.074582502 42:1.0355734 43:3.4648346 44:1.3382919 45:1.0488049 46:3.3772576 47:0.40716109 48:0.83822431 49:1.5503324 50:0.76582832 51:0.15421053 52:1.0266601 53:0.89916853 54:0.30258328 55:1.2469596 56:3.2536844 57:1.4704934 58:1.2887531 59:3.0492188 60:0.55859688 61:0.95863373 62:1.5873633 63:0.90493024 64:0.25612436 65:1.2361924 66:-0.5948094 67:-0.74019446 68:-0.07089004 69:0.90305098 70:0.65578632 71:0.9653282 72:1.2493363 73:-0.43769941 74:-0.10292557 75:0.3120692 76:-0.010392677 77:0.8205082 78:0.66370214 
0.52446397719536342 1:1.6345345 2:0.98562594 3:1.4554051 4:-1.8847341 5:-1.5354326 6:-0.9087912 7:3.4433795 8:2.6054857 9:-4.5379245 10:-1.0054764 11:-0.76204523 12:0.34468614 13:1.1682948 14:1.8096834 15:0.91443164 16:1.3453179 17:-1.8764883 18:-1.4988427 19:-0.81328791 20:3.2865291 21:2.6929357 22:-4.7947721 23:-1.2025743 24:-1.0220745 25:0.098854545 26:1.2701383 27:1.0890099 28:1.0398205 29:0.84942877 30:-1.1716276 31:-0.70477051 32:-1.7028299 33:2.24593 34:2.9323925 35:-4.3485099 36:-0.71810305 37:-0.43568986 38:0.14218494 39:0.7970773 40:1.5918117 41:-0.6190495 42:0.16238327 43:-0.060036732 44:0.11219028 45:1.6677711 46:0.20964539 47:-0.21046919 48:3.3055726 49:0.98563191 50:-0.69038755 51:1.9782828 52:0.31347267 53:1.6555798 54:-0.64173703 55:0.37035761 56:0.079312955 57:0.25211919 58:1.8538478 59:0.34830483 60:-0.14305263 61:2.9795663 62:1.0802559 63:-0.76297897 64:1.975806 65:0.46111834 66:-1.5022482 67:-1.0297362 68:-1.0831972 69:1.9241793 70:1.5818127 71:1.0349992 72:3.4243128 73:0.032655741 74:6.3226784 75:0.205092 76:-0.71470166 77:0.64503794 78:0.52793727 
1 1:-0.1796865 2:1.4469058 3:0.12364183 4:0.20103216 5:-0.10017762 6:-1.0791513 7:-0.20323905 8:0.25043175 9:0.84653269 10:0.23994054 11:0.88897266 12:-0.23232729 13:1.3051349 14:-0.20418563 15:1.396831 16:0.40488867 17:0.2645889 18:-0.2129048 19:-0.96559349 20:-0.17463981 21:-0.028874298 22:0.96857756 23:0.20239735 24:0.82871683 25:0.14335191 26:1.2784644 27:-0.0079171589 28:1.798623 29:-1.2916443 30:0.20909081 31:-0.82486292 32:-1.6536126 33:-0.50808092 34:0.86634523 35:0.25068202 36:0.74807364 37:0.63129903 38:-0.72852662 39:1.4203358 40:-0.65275636 41:-0.91509242 42:1.2654529 43:0.55930586 44:2.3109195 45:2.0264598 46:1.3928851 47:-0.0027872614 48:1.4420353 49:-0.53127353 50:-0.28128652 51:0.3765686 52:-0.4168906 53:-0.74000074 54:-1.3184732 55:1.4471606 56:0.82995972 57:2.2711386 58:2.1557381 59:1.5040472 60:0.10461854 61:1.5103885 62:-0.52594463 63:-0.24072796 64:0.4914405 65:-0.45059955 66:0.10385231 67:-1.3660389 68:0.010904555 69:-0.11950557 70:0.65605027 71:1.3536238 72:0.25528293 73:-0.45271212 74:0.51096265 75:-0.61196283 76:0.012741246 77:-0.096631907 78:0.28735362 
1 1:-0.84376146 2:1.1115544 3:-0.34940862 4:0.82875861 5:-0.78481204 6:0.53337823 7:-0.20010339 8:-0.97844009 9:0.76281114 10:-0.29912534 11:0.88235013 12:-0.35314725 13:0.33938881 14:-0.85648326 15:0.96570166 16:-0.30369497 17:0.82785735 18:-0.76398573 19:0.46188255 20:-0.22198012 21:-1.080903 22:0.63946525 23:-0.35461233 24:0.72913784 25:-0.43302884 26:0.67587982 27:-0.40754818 28:1.2199709 29:-0.62181614 30:0.69053946 31:-0.90177538 32:0.7713843 33:-0.2656402 34:-0.54316938 35:0.81787771 36:0.47400577 37:1.2164603 38:0.059982281 39:-0.8852672 40:-0.86994793 41:-0.49092759 42:0.20603227 43:-0.70401001 44:0.23435431 45:-0.17842178 46:-0.31892886 47:-0.32271346 48:0.44775807 49:-0.87009061 50:-0.42575664 51:-0.33758196 52:1.5961959 53:-1.2706493 54:-0.42840333 55:0.41999986 56:-0.97114469 57:0.3886695 58:-0.095326448 59:-0.2716809 60:-0.28284504 61:0.5734218 62:-0.95970739 63:-0.41902384 64:-0.30073803 65:1.797591 66:0.85094518 67:-1.0109842 68:0.28494573 69:-1.1381529 70:0.61582511 71:-0.68771303 72:-0.51925204 73:0.79913253 74:0.085416742 75:-1.0400077 76:-0.078004616 77:-0.45018369 78:0.62126252 
0.73980130533113575 1:0.45679991 2:-0.25681168 3:1.0640551 4:0.84374491 5:-0.92942036 6:-0.56159357 7:0.52082155 8:-0.12268486 9:-1.4172081 10:-0.27121492 11:0.1899506 12:1.0378427 13:0.049658271 14:0.1642607 15:0.022593782 16:1.0224662 17:0.65134612 18:-0.92372548 19:-0.59432343 20:0.57714943 21:-0.2590798 22:-1.2794522 23:-0.28923571 24:0.22655486 25:1.0262648 26:0.1236291 27:0.1475572 28:-2.3505272 29:0.94874139 30:0.32664678 31:-0.85339711 32:-0.42543839 33:-0.77197833 34:-0.1498395 35:-2.2526922 36:-1.3011519 37:-0.22199153 38:0.36930196 39:-0.54338714 40:2.4887095 41:6.2456217 42:-0.18649283 43:0.18830964 44:0.81884308 45:-0.0064013473 46:0.12725492 47:-0.26577249 48:3.141973 49:2.8654398 50:0.12866877 51:0.56543348 52:0.86980747 53:2.2622716 54:4.1355137 55:-0.059547709 56:0.39998373 57:0.99067649 58:0.1302286 59:0.25711963 60:-0.21137021 61:2.8614263 62:2.6486861 63:0.23512273 64:0.68448625 65:1.0733762 66:-0.406363 67:1.2390601 68:-1.1619326 69:-0.48219224 70:0.9789752 71:-0.037751709 72:-0.50896301 73:-0.20666082 74:1.598938 75:0.63094085 76:-0.34976013 77:0.3270432 78:0.15586823 
1 1:-0.61809552 2:-0.16737773 3:-0.034926608 4:-0.05272696 5:-0.95527312 6:0.43663164 7:-0.67682924 8:-1.4064184 9:-0.080523129 10:-0.45180621 11:0.96998706 12:1.1472184 13:-0.46122637 14:-0.65086318 15:-0.16574962 16:-0.01001186 17:-0.071200022 18:-1.0848816 19:0.45581068 20:-0.7732388 21:-1.0268268 22:-0.053886625 23:-0.50578551 24:0.97486146 25:1.0773224 26:-0.44165593 27:-0.20220232 28:0.25451802 29:-0.048050309 30:0.54731921 31:-0.33873684 32:0.85268795 33:-0.44707068 34:-1.426363 35:-0.88259025 36:0.58781397 37:0.72987986 38:1.7741811 39:0.062438069 40:-0.73011175 41:-0.49849687 42:-0.58584152 43:-0.79414456 44:0.12160577 45:-0.4869647 46:-0.40188552 47:0.91644744 48:-0.58662174 49:-1.0269689 50:-0.31262498 51:-0.84368898 52:-0.47477953 53:-0.90262917 54:-0.44027691 55:-0.65910646 56:-1.1643037 57:0.26279859 58:-0.54204518 59:-0.37768885 60:1.0720378 61:-0.60320009 62:-1.1748544 63:-0.27888698 64:-0.94159449 65:-0.52977599 66:0.59916902 67:-0.0013752975 68:-0.25215656 69:-0.67319112 70:0.79484532 71:-0.94324533 72:-0.023464053 73:1.6619489 74:-0.76826052 75:-1.1170705 76:0.098432752 77:-0.31112037 78:-0.63302029 
0.16616908116432932 1:1.5358216 2:-1.9786963 3:0.27772807 4:0.21304976 5:0.33550041 6:0.039870748 7:0.31165903 8:-1.6987987 9:-0.037213262 10:0.63572087 11:-0.53973347 12:0.13844058 13:-1.3147688 14:1.4864245 15:-1.72233 16:0.24404309 17:0.18669015 18:0.7048885 19:-0.086060885 20:0.34682921 21:-1.6239016 22:-0.23576519 23:0.86651688 24:-0.61894851 25:-0.078247796 26:-1.2067743 27:1.222041 28:-1.3772739 29:0.88538009 30:0.61147395 31:-1.1193743 32:0.4199872 33:0.39081135 34:-1.5765809 35:0.12270623 36:0.40711459 37:0.23279949 38:0.29963624 39:-0.93972832 40:-0.34368223 41:-0.26213299 42:-0.73372937 43:-0.32470056 44:2.1055366 45:-0.4787242 46:-0.48069186 47:0.14779782 48:1.6850968 49:0.040126797 50:-0.81921192 51:-0.025774893 52:0.21494234 53:-0.22329073 54:-0.10136624 55:-0.93152284 56:-0.30333758 57:2.1107979 58:-0.52925404 59:-0.48106029 60:0.27630886 61:1.7199383 62:0.13197315 63:-0.9397933 64:0.058593094 65:0.34619133 66:-1.7400856 67:1.879292 68:-0.66071813 69:-0.6128187 70:0.35186125 71:-0.88269309 72:-0.87800897 73:1.8710082 74:0.22015957 75:0.039928797 76:-0.97986458 77:-0.3971378 78:0.54921891 
1 1:-0.41861621 2:1.133104 3:-0.78278267 4:-0.6608803 5:-0.47081463 6:-0.49360633 7:-0.1679765 8:0.093731354 9:-0.41112647 10:0.163706 11:0.42273789 12:0.81239137 13:-0.38981537 14:-0.44149098 15:1.090307 16:-0.71551021 17:-0.59245519 18:-0.39223092 19:-0.46358159 20:-0.14227584 21:0.096260535 22:-0.39492397 23:0.098518621 24:0.49303003 25:0.67519929 26:-0.51057558 27:-0.025840508 28:1.2520839 29:0.11966268 30:0.16632786 31:-0.071453264 32:0.31002765 33:0.0064688204 34:0.58236927 35:0.35805369 36:0.57318193 37:0.81323133 38:1.4362066 39:-0.47706889 40:-0.81223666 41:-0.94249946 42:-0.8438098 43:-0.78476533 44:-0.49805161 45:-0.6638978 46:-0.61975222 47:-0.97516913 48:-0.86020436 49:-0.20490418 50:-0.66455807 51:-0.63926045 52:-0.55385799 53:-1.1028204 54:-1.4109086 55:-1.1650444 56:-1.1432914 57:-0.50879816 58:-0.83119264 59:-0.67048312 60:-1.2082405 61:-0.96984493 62:-0.14047913 63:-0.72831551 64:-0.67286147 65:-0.63994806 66:0.36812766 67:-1.3646965 68:0.61408977 69:0.082426113 70:-0.045975597 71:-0.47276966 72:-0.71458554 73:-0.74673225 74:-0.76885775 75:-0.50263766 76:-0.72493264 77:-0.50727247 78:-0.72761507 
1 1:0.29428059 2:-0.84296899 3:0.59652031 4:-0.25921684 5:1.143603 6:-0.49420306 7:0.57258039 8:0.96593155 9:0.095852595 10:0.25900717 11:0.67879757 12:-0.034380581 13:0.57350281 14:0.18417341 15:-0.85395889 16:0.60257233 17:-0.19218827 18:1.2457162 19:-0.38864193 20:0.49412526 21:0.87202409 22:0.16833249 23:0.18011176 24:0.69987096 25:0.11474238 26:0.52037295 27:0.27710426 28:-0.80898371 29:0.33250726 30:0.34441943 31:0.13870821 32:-0.52721384 33:1.0118672 34:1.544737 35:-0.0062641719 36:0.65863205 37:1.4328628 38:0.25703108 39:0.66243255 40:-0.021967301 41:0.75653169 42:0.017788166 43:-0.43314538 44:-0.26416394 45:0.0065335017 46:-0.23414383 47:-0.66320925 48:-0.17568497 49:-0.058085208 50:-0.96200952 51:-0.37894458 52:-0.48249743 53:0.19617072 54:0.96529188 55:0.19987899 56:-0.4765101 57:-0.19917162 58:0.14663182 59:-0.16608973 60:-0.73788503 61:-0.10259511 62:0.024349202 63:-1.1441611 64:-0.35022325 65:-0.54042435 66:-0.39325987 67:0.88125756 68:-0.74706186 69:-0.23590017 70:-0.72902991 71:-0.11023483 72:-0.69217798 73:-1.2017851 74:-0.55689926 75:-0.36327573 76:-0.66724462 77:-0.59826759 78:-0.51670541 
1 1:-0.39464099 2:1.5078238 3:0.60093203 4:-0.14815596 5:0.94183183 6:-0.59799078 7:-0.67828359 8:0.33032869 9:0.92919794 10:-0.47044354 11:-0.075138318 12:-0.59743287 13:1.0433859 14:-0.42101274 15:1.3649333 16:0.714595 17:-0.096723147 18:0.964117 19:-0.67125252 20:-0.84524548 21:0.29677173 22:1.1472452 23:-0.59832399 24:0.2734396 25:-0.51588992 26:1.0094817 27:0.0070200506 28:1.9642128 29:-0.32008757 30:-0.50688045 31:1.5496602 32:0.15976293 33:-0.19683921 34:-0.91238849 35:0.82259562 36:0.016305853 37:-1.1293842 38:-0.33814746 39:0.48411308 40:-0.72735929 41:-0.85044518 42:0.73304732 43:-0.42757897 44:-1.0512369 45:-0.7001156 46:-0.54161956 47:0.9511515 48:0.62318299 49:0.80604504 50:3.1402273 51:-0.079469806 52:0.023664028 53:-0.89647762 54:-1.1324533 55:0.96694567 56:-0.46733848 57:-1.3824076 58:-0.89426703 59:-0.56289723 60:1.1053383 61:0.74961562 62:0.91073986 63:2.9455626 64:-0.0016659242 65:0.1165677 66:0.34472714 67:-1.2739958 68:-0.53085995 69:-0.35103428 70:-1.3596182 71:-0.34832165 72:-0.082695808 73:-0.12811635 74:0.30907799 75:-0.15471833 76:1.1318662 77:-0.1397099 78:0.23371525 
1 1:0.70448536 2:-1.1257253 3:0.51197404 4:1.5950296 5:-0.26545785 6:-0.01525807 7:0.45577106 8:0.30587527 9:1.2014817 10:-1.2570695 11:-0.0057512805 12:0.8782502 13:-0.19195107 14:0.80691701 15:-1.5437682 16:0.52907584 17:1.5495381 18:-0.51955065 19:-0.070702512 20:0.50354364 21:0.16479681 22:1.1645926 23:-1.2641541 24:0.099298991 25:0.88420577 26:-0.37481143 27:0.68966813 28:-1.3655286 29:0.63852228 30:1.8614685 31:-0.26561377 32:0.15698951 33:0.71107151 34:0.11848353 35:1.5841787 36:-1.2532955 37:0.2566257 38:1.2545968 39:0.92445754 40:-0.17052293 41:2.2332134 42:-0.66664709 43:-0.64882408 44:0.28630771 45:-0.54730174 46:-0.46795339 47:0.61111973 48:-1.0208054 49:0.37263121 50:-0.65244568 51:-0.84973006 52:-0.74156308 53:0.012659678 54:2.0584698 55:-0.80314168 56:-0.86127993 57:0.44547348 58:-0.63741607 59:-0.46416626 60:0.77013561 61:-1.2010307 62:0.48227146 63:-0.71214694 64:-0.94976789 65:-0.91166339 66:-0.85589568 67:1.3530829 68:-0.90250616 69:-0.54359803 70:0.05088281 71:-0.89964666 72:-0.86398526 73:-0.24278611 74:0.034453214 75:0.20430086 76:-0.95507063 77:-0.58396879 78:-0.94361722 
1 1:2.0033303 2:-0.84457102 3:1.8567753 4:0.914711 5:-0.058003407 6:0.5958808 7:-0.12770958 8:0.54834264 9:0.65025023 10:0.19873878 11:1.7271648 12:0.1819376 13:1.103247 14:1.8173387 15:-1.5852688 16:2.1192987 17:0.88469842 18:-0.13875476 19:0.47623302 20:-0.19831455 21:0.53310418 22:0.63049352 23:0.18620941 24:1.744117 25:0.18304044 26:0.96729463 27:1.7700975 28:-1.174526 29:1.0437429 30:0.37852723 31:0.35755783 32:1.3400286 33:0.14071072 34:0.70499633 35:0.46242483 36:0.23444916 37:0.59219247 38:-0.40481281 39:1.2587311 40:0.68656094 41:3.0442006 42:1.5533003 43:-0.38784329 44:-0.47285378 45:-0.77499725 46:-0.5591035 47:-0.61228844 48:-0.32652547 49:-0.3569497 50:0.51094348 51:1.3318699 52:-0.19629478 53:0.92375411 54:2.5524681 55:1.6850244 56:-0.40279015 57:-0.47413797 58:-1.0296869 59:-0.58670714 60:-0.66646992 61:-0.28032819 62:-0.31657007 63:0.64574845 64:1.4142089 65:-0.15930307 66:-1.7718659 67:1.2189799 68:-0.49006693 69:-0.8510101 70:-0.49955765 71:-1.0970062 72:-0.7144398 73:-0.97281878 74:-0.33430288 75:-0.55442507 76:1.5855136 77:0.32768371 78:0.17106712 
1 1:-0.68706853 2:0.20832793 3:-0.19517674 4:-1.0090314 5:0.28623187 6:-0.28347096 7:0.058533715 8:-1.0112989 9:-0.028306437 10:-0.28156658 11:0.73324318 12:1.6350067 13:-0.85137853 14:-0.69392401 15:0.18922295 16:-0.011694269 17:-1.0642783 18:0.24255328 19:-0.25078957 20:0.097379763 21:-0.97519603 22:0.018484341 23:-0.30476993 24:0.7055121 25:1.6528427 26:-0.88137609 27:-0.096569163 28:0.47921924 29:-0.16144247 30:-0.66276857 31:0.80419803 32:-0.18487973 33:0.67473977 34:-0.40191329 35:0.16171317 36:0.073510477 37:0.92721483 38:1.1642745 39:-0.5186356 40:-0.82325289 41:-0.31635934 42:-0.22748645 43:-0.29952906 44:-0.80518288 45:-0.64496125 46:-0.66019773 47:-0.54094747 48:-0.53971402 49:-0.59255211 50:-0.18347029 51:-0.55980926 52:-0.07920884 53:-1.1326952 54:-0.17403491 55:-0.11472199 56:-0.26468131 57:-0.96276797 58:-0.79879082 59:-0.72741894 60:-0.56855282 61:-0.54328634 62:-0.60161815 63:-0.12336371 64:-0.57222925 65:-0.010780208 66:0.67392091 67:-0.30700655 68:0.018643545 69:0.71522515 70:-0.99915389 71:-0.7225674 72:-0.90868068 73:0.78003324 74:-0.74896468 75:-0.87402302 76:-0.11286654 77:0.43375253 78:-0.088594386 
1 1:0.4562666 2:0.38091697 3:-0.30545865 4:-0.32409248 5:0.88755634 6:0.20817668 7:-0.27935211 8:0.5411082 9:-0.92740618 10:-0.11742571 11:1.4330178 12:-1.1283442 13:-0.792372 14:0.4306739 15:0.26383398 16:-0.51567096 17:-0.18606831 18:0.80878777 19:0.21625661 20:-0.23143215 21:0.57863778 22:-0.93452985 23:-0.093515991 24:1.6183302 25:-1.3015889 26:-0.8052109 27:0.57319567 28:0.12879844 29:-0.73514438 30:-0.51230197 31:1.1547256 32:0.30015543 33:0.060882072 34:0.59612432 35:-0.56332892 36:0.14783363 37:0.34141564 38:-1.0828452 39:-0.41446129 40:-0.21201183 41:0.0028626153 42:0.49283164 43:-0.10769377 44:-0.47840521 45:-0.49741584 46:-0.4504718 47:-0.080023299 48:-0.065183392 49:-0.32676192 50:1.9538721 51:1.2853084 52:-0.36391465 53:-0.041456102 54:0.22225775 55:0.72843218 56:0.013940821 57:-0.48174486 58:-0.55834654 59:-0.44109969 60:0.014069728 61:0.023709741 62:-0.28114625 63:1.9957181 64:1.3720311 65:-0.37918113 66:-0.58549356 67:-0.35782012 68:0.29135603 69:-0.0097297379 70:-0.95142077 71:-0.96206404 72:-0.51460557 73:-0.69806516 74:0.088909191 75:-0.70055659 76:1.7293603 77:0.97230578 78:-0.32405263 
1 1:0.032155072 2:0.56680612 3:-0.58386555 4:0.48016157 5:-1.1718893 6:1.1970069 7:0.58985497 8:-1.0804027 9:-0.039505185 10:-0.28388279 11:-1.0331792 12:-0.23636169 13:0.71646923 14:0.011721936 15:0.63694169 16:-0.83259293 17:0.56427401 18:-1.0747903 19:1.0853812 20:0.53396632 21:-1.2734819 22:-0.0050005606 23:-0.31174057 24:-1.0442717 25:-0.092316772 26:0.94134628 27:0.45765613 28:1.0824466 29:-0.38371559 30:1.0774991 31:-0.8933912 32:1.0954892 33:0.97238943 34:-0.88564365 35:0.28225145 36:-0.50161935 37:0.093747946 38:0.28605188 39:0.59065281 40:-0.63731855 41:-0.83712159 42:0.10323449 43:-0.62387994 44:-0.74426195 45:-0.30369964 46:-0.52556436 47:1.3335956 48:-0.78287184 49:-0.08384126 50:-1.0339545 51:-0.99903824 52:-0.41452528 53:-0.70975643 54:-1.0981064 55:0.30178481 56:-0.81339145 57:-0.86750597 58:-0.26935276 59:-0.54116299 60:1.4601717 61:-0.86300261 62:-0.0042163832 63:-1.2508467 64:-1.1564636 65:-0.44738996 66:-0.13574417 67:-0.81682312 68:0.53729221 69:-0.99866949 70:0.81750851 71:-0.14375285 72:-0.86009484 73:1.3623365 74:-0.88472994 75:-0.59750907 76:-0.65783408 77:-0.95003434 78:-0.35462887 
1 1:1.2883356 2:-3.007806 3:-0.15641938 4:-0.12219459 5:1.4178424 6:-1.4839414 7:-0.37261139 8:-0.52583794 9:0.27780119 10:0.85737631 11:0.19569529 12:-0.70633965 13:0.97385237 14:1.3977644 15:-2.7734458 16:-0.15988838 17:0.031616783 18:1.2496384 19:-1.4179118 20:-0.39828978 21:-0.6544911 22:0.39407274 23:0.75894397 24:0.27495015 25:-0.66516122 26:1.0679339 27:0.77233032 28:-2.3481167 29:0.62187949 30:0.50861317 31:1.8037872 32:-0.65211252 33:0.41433187 34:0.039756596 35:0.81469182 36:0.65214618 37:1.2061468 38:-0.89084951 39:0.98191233 40:0.37008353 41:-0.069723101 42:-0.81296843 43:-0.79028807 44:-0.86182387 45:-0.66735301 46:-0.7043487 47:-0.90728126 48:-0.96764505 49:-0.63500287 50:-0.88408459 51:-0.98486015 52:-0.66521835 53:0.62254668 54:0.13812249 55:-1.0962211 56:-1.1556358 57:-1.0540884 58:-0.8371466 59:-0.79060119 60:-1.1004692 61:-1.1230246 62:-0.65471692 63:-1.0314791 64:-1.1364324 65:-0.79931991 66:-1.4038138 67:2.9693806 68:-0.16032317 69:-0.59121936 70:-0.88649911 71:1.0821019 72:-0.54926855 73:0.028928591 74:-0.93282147 75:0.039198763 76:-1.0527145 77:-0.57790553 78:-0.2659088 
0.33163460375651999 1:1.3553701 2:-1.7141069 3:2.4263034 4:0.70843129 5:-1.4122725 6:-0.58662121 7:0.4703798 8:0.2186388 9:-0.48164407 10:0.58093489 11:-0.93437891 12:1.0087986 13:0.13229557 14:1.6128607 15:-1.877827 16:2.3980031 17:0.52069399 18:-1.4270816 19:-0.59209285 20:0.36316401 21:0.22719159 22:-0.41294701 23:0.81455613 24:-0.90320898 25:0.96100809 26:0.25829605 27:0.12756186 28:-1.8029999 29:2.0631856 30:0.83655413 31:-0.79400472 32:-0.60993687 33:0.11904952 34:-0.21320906 35:-0.33453386 36:-1.4110846 37:-0.5518425 38:0.34481423 39:0.37144721 40:4.9560925 41:2.299038 42:0.069067398 43:0.01961867 44:-0.21659565 45:-0.36409617 46:-0.21434522 47:-0.095796367 48:-0.3191361 49:2.9839217 50:0.050328575 51:-0.75230081 52:-0.64677379 53:3.6100014 54:2.1006951 55:0.26145457 56:0.18563018 57:-0.13922752 58:-0.35664296 59:-0.14181123 60:-0.0046423088 61:-0.27146957 62:2.7376898 63:0.14728886 64:-0.81962421 65:-0.77256479 66:-0.97745575 67:1.9056773 68:-0.50196772 69:-0.5884149 70:1.3190201 71:-0.1846323 72:-0.70858837 73:-0.46599158 74:-0.44310266 75:1.0422102 76:-0.085151084 77:-0.40182681 78:-0.86167938 
0.48653868675111472 1:1.0772515 2:-0.83425381 3:1.5031258 4:1.434974 5:-1.4165039 6:-0.1855846 7:0.94576062 8:0.56646567 9:-0.6981744 10:0.93949361 11:0.34232545 12:1.1365174 13:1.2880873 14:0.981986 15:-1.2475703 16:1.4199687 17:1.4393794 18:-1.732264 19:-0.29247701 20:1.0464171 21:0.56929222 22:-0.4441586 23:1.1873517 24:0.21715909 25:1.0697258 26:1.3548064 27:0.11581416 28:-1.9902655 29:0.90479282 30:0.83367881 31:-1.4525692 32:0.11299935 33:-0.83907964 34:-0.5027753 35:-5.5816311 36:-0.0071397158 37:0.73954252 38:0.61211436 39:0.9510146 40:4.1186527 41:5.7795757 42:0.75318787 43:0.024739484 44:1.4614827 45:-0.012780015 46:0.79546359 47:-0.024510421 48:2.357987 49:1.7652877 50:-0.1647508 51:0.11017681 52:-0.096243465 53:3.1909095 54:3.9306477 55:0.98624549 56:0.19234573 57:1.578247 58:0.12211253 59:0.95189981 60:0.079328862 61:2.2691126 62:1.7712611 63:-0.10119396 64:0.2084099 65:-0.032145273 66:-0.85527636 67:1.5686473 68:-0.84923778 69:-0.30629414 70:1.7643967 71:-0.42418529 72:0.025100187 73:-0.68694992 74:0.71330416 75:1.0057103 76:-0.45026017 77:0.19029543 78:0.44454423 
1 1:-0.51436813 2:0.75450933 3:-0.53536024 4:-0.37774342 5:-0.089798179 6:-0.14343333 7:0.32533716 8:-0.23241604 9:-0.57393927 10:-0.17482072 11:0.0356844 12:1.1546819 13:0.22419723 14:-0.53640696 15:0.8687095 16:-0.5178845 17:-0.3046644 18:-0.06694782 19:-0.17554212 20:0.3359578 21:-0.16277056 22:-0.54864538 23:-0.13299516 24:-0.0066750792 25:1.04556 26:0.39038344 27:0.055615007 28:0.80036941 29:-0.29247908 30:-0.093048212 31:0.5351948 32:0.74518369 33:0.75716533 34:0.32956199 35:-0.43055895 36:0.16460723 37:0.78477067 38:1.3373969 39:0.54855361 40:-0.7729829 41:-0.76764503 42:-0.44508159 43:-0.66353388 44:-0.91635032 45:-0.77418188 46:-0.87787156 47:-0.92461807 48:-1.106982 49:-0.75293175 50:-1.0393284 51:-0.87619113 52:-0.48118184 53:-1.0027297 54:-0.93433179 55:-0.42976782 56:-0.89001795 57:-1.1447458 58:-1.0281731 59:-1.0505092 60:-1.1276715 61:-1.3308959 62:-0.80529702 63:-1.2589233 64:-0.98573641 65:-0.53860767 66:0.47907775 67:-0.9507568 68:0.37949107 69:-0.217076 70:-0.70387944 71:-0.96587394 72:-1.1500254 73:-0.34544513 74:-0.76119552 75:-0.95550821 76:-1.2544075 77:-0.32171189 78:-0.70578552 
0.7143873349013512 1:-0.67207262 2:1.4589921 3:0.42032159 4:1.2486983 5:-0.19618205 6:0.60058419 7:0.78180368 8:-0.83869403 9:0.69080101 10:-0.027798454 11:-0.14593187 12:0.29619163 13:-1.6283189 14:-0.68501319 15:1.4666225 16:0.38542797 17:1.2370934 18:0.240921 19:0.48990607 20:0.54634437 21:-0.79851641 22:0.65636716 23:-0.045677882 24:-0.11589898 25:0.068313301 26:-1.4813846 27:-0.26095811 28:1.2376998 29:0.55874437 30:1.2822524 31:-0.35857332 32:1.3472902 33:0.85538921 34:-1.5704167 35:0.35340235 36:-0.14526441 37:-1.3576722 38:-0.79918123 39:-2.0841234 40:-0.73521893 41:-0.4911222 42:-0.27080549 43:-0.5671298 44:0.79769413 45:-0.68143823 46:-0.12730008 47:1.4047194 48:-0.69709265 49:-0.34857158 50:0.62520267 51:0.37423874 52:0.75920754 53:-0.91412516 54:-0.4287076 55:-0.17432707 56:-0.70808692 57:0.97016223 58:-0.86155466 59:-0.036678934 60:1.5238871 61:-0.74754483 62:-0.3067151 63:0.76325984 64:0.48902137 65:0.95616634 66:0.66047621 67:-1.0321659 68:-0.67199243 69:-0.81328896 70:0.18903231 71:-1.0158588 72:-0.52565523 73:1.1022149 74:-0.46655303 75:-0.68093921 76:-0.12484439 77:-0.15372583 78:1.1911925 
1 1:0.56568973 2:0.57468473 3:0.37733487 4:1.1873781 5:-0.5367282 6:-0.87658958 7:0.048813789 8:-0.76894225 9:0.082972419 10:0.12060303 11:-0.19231477 12:-0.12276894 13:0.7955534 14:0.49676382 15:0.70340204 16:0.44633506 17:0.94234593 18:-0.26303424 19:-0.61724594 20:0.36293307 21:-0.44996028 22:0.042708581 23:0.17896359 24:-0.30050387 25:-0.022252829 26:0.86758978 27:0.34089991 28:-0.39943522 29:-1.0295888 30:0.40431237 31:-0.98481473 32:-2.2191822 33:-1.9068975 34:-3.1688909 35:-0.94378459 36:-1.3532629 37:-0.37005569 38:0.079441963 39:-0.024333484 40:0.76782032 41:-0.077283724 42:1.0596574 43:1.3517543 44:0.39010677 45:1.3016968 46:2.6484671 47:2.3071374 48:0.31137591 49:0.82185049 50:0.25865638 51:0.17743008 52:0.58925146 53:0.9964294 54:0.12918209 55:1.2684059 56:1.6175488 57:0.5568491 58:1.5272473 59:2.5220283 60:2.2811328 61:0.43257883 62:0.92583511 63:0.37796909 64:0.28113113 65:0.77189711 66:-0.63493488 67:-0.52814915 68:-0.26302254 69:0.18034294 70:0.37795318 71:0.87131053 72:0.60058925 73:1.2594015 74:-0.32954136 75:-0.056917794 76:-0.34527304 77:-0.24281004 78:0.32803552 
0.45889464947911507 1:0.63692578 2:0.43849771 3:-0.33436106 4:-0.23516642 5:0.3348914 6:0.35540259 7:-0.76839334 8:0.6481843 9:-0.56475552 10:-0.29225441 11:1.4086451 12:-0.037086351 13:-1.5797012 14:0.61001865 15:0.10037213 16:-0.45245883 17:-0.18286014 18:0.29706821 19:0.33053297 20:-0.66696229 21:0.63633269 22:-0.54215181 23:-0.41906822 24:1.2728646 25:-0.16279389 26:-1.5383191 27:0.82858486 28:0.056258644 29:-1.9680364 30:-0.54380008 31:0.34404672 32:-0.40687669 33:-0.97820653 34:0.40214905 35:-0.38025776 36:0.30553864 37:0.34559421 38:-0.38632205 39:-2.0071241 40:-0.08852684 41:0.49692144 42:1.5206091 43:-0.19296129 44:-0.6549764 45:0.36132764 46:-0.26749977 47:-0.094485945 48:0.027112475 49:-0.2108176 50:1.2175479 51:0.13088061 52:-0.06728223 53:0.11579613 54:0.73088582 55:1.6586608 56:-0.1066435 57:-0.73288658 58:0.57115064 59:-0.20731251 60:-0.0030848056 61:0.12687448 62:-0.14722188 63:1.3401904 64:0.23089225 65:0.0041304243 66:-0.77548027 67:-0.25750375 68:0.51344714 69:-0.14123842 70:-0.93513681 71:-0.40275 72:0.15545988 73:-0.76600804 74:-0.22471443 75:-0.66382975 76:1.4038647 77:-0.28916817 78:0.72873489 
1 1:-0.61735233 2:-0.55123119 3:0.39626931 4:0.85056555 5:-1.0191925 6:1.6688548 7:0.55530876 8:-0.26336165 9:1.0839546 10:0.24874563 11:-1.6404995 12:1.5978296 13:-0.41103422 14:-0.71432548 15:-0.45257308 16:0.35540787 17:0.8928683 18:-1.0214643 19:2.1363168 20:0.54201888 21:-0.32814319 22:1.1507572 23:0.1896915 24:-1.799024 25:1.5818062 26:-0.38352647 27:-0.87244576 28:-0.39537402 29:0.85366403 30:0.78567582 31:-1.0280168 32:0.4369052 33:0.41565182 34:-0.19053928 35:1.0479954 36:0.39690458 37:-1.0360694 38:1.4897325 39:0.17980943 40:1.4635361 41:-0.48302893 42:-0.49256578 43:0.11798415 44:-0.52003081 45:2.8055291 46:-0.63171445 47:0.48425847 48:0.11616904 49:-0.53737878 50:0.65109307 51:-0.53640728 52:-0.041785294 53:1.5606895 54:-0.4160986 55:-0.50447411 56:0.31228361 57:-0.53931351 58:2.7618554 59:-0.68723118 60:0.63956714 61:0.22453028 62:-0.53343357 63:0.78958218 64:-0.54296401 65:0.035875953 66:0.69019383 67:0.3836343 68:-0.71733201 69:-0.52326427 70:0.67254854 71:1.571224 72:-0.94178767 73:0.21083435 74:0.30067733 75:-0.60794327 76:1.0603521 77:0.39595875 78:-0.3496755 
1 1:1.5923387 2:-1.139563 3:0.78953718 4:0.97804389 5:0.11963638 6:-0.2656464 7:0.43166376 8:-1.4941569 9:-0.60617073 10:1.4107337 11:-0.3306134 12:0.15848007 13:0.03715768 14:1.573151 15:-1.0532613 16:0.72883113 17:0.94464672 18:0.064893502 19:-0.29456114 20:0.54693609 21:-1.41382 22:-0.42014199 23:1.4657973 24:-0.33211311 25:0.31753494 26:0.099657313 27:1.8374478 28:-0.91773002 29:1.3787898 30:1.0848787 31:0.71077345 32:0.48381259 33:-0.40889821 34:-1.7546704 35:0.018926089 36:-0.42068949 37:0.066990706 38:0.87087868 39:0.64306249 40:-0.53033615 41:-0.26550908 42:-0.74717795 43:-0.38893763 44:-0.86973491 45:-0.6865684 46:0.5291738 47:-0.35748013 48:-0.75606154 49:0.95605917 50:0.093957965 51:-0.49678393 52:-0.50740567 53:-0.51556355 54:-0.10581599 55:-0.95838829 56:-0.40454675 57:-1.0670684 58:-0.87050001 59:0.68644768 60:-0.32707602 61:-0.82658252 62:1.0526376 63:0.19637252 64:-0.49378944 65:-0.57494197 66:-1.8294507 67:1.0159579 68:-1.2248881 69:-0.83262851 70:-0.8974619 71:-0.77108724 72:-0.32086092 73:1.477453 74:-0.54757221 75:1.3749189 76:-0.42937978 77:-0.69172665 78:-0.76726761 
0.90433945279802197 1:0.29605504 2:0.68659472 3:0.75102675 4:-0.08106685 5:-2.0002467 6:-0.24515243 7:-1.3628311 8:-1.5184493 9:-1.0101933 10:-1.0892714 11:-0.61036297 12:-3.0069718 13:0.5270184 14:0.12318827 15:0.73497038 16:0.63621437 17:-0.2204052 18:-1.7873772 19:-0.15562966 20:-1.3013369 21:-1.125556 22:-0.83006696 23:-1.2009344 24:-0.5508484 25:-3.0526248 26:0.46601069 27:0.4165795 28:0.40853846 29:0.71256984 30:-0.25341563 31:-2.8681014 32:-1.5311522 33:-1.4792207 34:-2.33136 35:-1.4740798 36:-1.2049323 37:-0.72646975 38:-3.8493898 39:-0.077647402 40:0.34896605 41:-0.50348385 42:0.029218414 43:0.62807807 44:0.70130929 45:0.98390803 46:0.57514299 47:0.55298903 48:-0.095409358 49:0.99947056 50:0.34642211 51:3.0754537 52:0.25028484 53:0.60127058 54:-0.44814439 55:0.21371638 56:0.90453146 57:0.87557969 58:1.2256289 59:0.73325605 60:0.71070602 61:-0.010528613 62:1.0931409 63:0.47248575 64:2.844783 65:0.38766609 66:-0.37190003 67:-0.77191411 68:-0.87102284 69:0.10034504 70:2.381758 71:0.12555213 72:1.2904533 73:1.7225763 74:0.17382279 75:0.28167364 76:-0.15937071 77:3.9295478 78:-0.059462519 
0.9141607544103616 1:0.42371077 2:-1.1561426 3:0.72629379 4:1.6234009 5:0.023030418 6:0.52566386 7:0.59580311 8:0.46146108 9:0.92443259 10:-1.0568153 11:-0.57421915 12:0.13382106 13:-0.62766322 14:0.39154431 15:-1.3138348 16:0.66474938 17:1.4951388 18:0.05106496 19:0.54305047 20:0.63652269 21:0.55661281 22:0.92225508 23:-1.0496079 24:-0.52555615 25:0.22272772 26:-0.69319695 27:0.78512041 28:-0.96982071 29:1.5115576 30:1.7200761 31:0.70671862 32:0.67635625 33:-0.11474689 34:0.44332917 35:1.2246247 36:-0.66113148 37:0.32046429 38:0.42219331 39:0.26068262 40:-0.76593134 41:0.18974942 42:-0.8683415 43:-0.78777458 44:-0.82872802 45:-0.63303779 46:-0.90148998 47:-0.88156144 48:-0.62115565 49:-0.50207704 50:-0.74326025 51:-0.75042192 52:-0.82360625 53:-0.98566838 54:0.42638231 55:-1.222049 56:-1.1500077 57:-1.0003927 58:-0.77858363 59:-1.0874705 60:-1.0605006 61:-0.64782235 62:-0.49028208 63:-0.83473748 64:-0.81714865 65:-1.0354277 66:-0.58764947 67:1.0993696 68:-1.218532 69:-0.5982335 70:-0.77625363 71:-1.0223302 72:-1.1094448 73:-1.056172 74:-0.17303606 75:-0.38879205 76:-0.90017765 77:-0.86473523 78:-0.79148092 
1 1:-0.1035586 2:0.37607375 3:-0.26756279 4:0.0082704748 5:0.68128482 6:0.54017684 7:-1.0916 8:-0.53443709 9:0.35187789 10:-0.26309614 11:-0.4411681 12:-0.97380931 13:-0.79829032 14:-0.28291792 15:0.57508488 16:-0.2651007 17:-0.00087605999 18:0.74558829 19:0.40359142 20:-1.2558011 21:-0.42795848 22:0.25618756 23:0.02781261 24:-0.346525 25:-0.95239092 26:-0.85602458 27:-0.16265519 28:0.23012668 29:-0.036533498 30:-0.87333649 31:0.18805381 32:-0.46867586 33:-1.1655494 34:-0.15909467 35:-0.30571852 36:-2.1525277 37:-1.5739265 38:-1.9424441 39:-0.59058846 40:0.88889259 41:-0.19786152 42:-0.23330397 43:0.50368853 44:0.027505829 45:2.0950223 46:0.93807669 47:-0.53184955 48:0.9674872 49:2.9576571 50:0.47483001 51:1.546012 52:0.11678269 53:1.1016912 54:-0.018406837 55:-0.12264702 56:0.76858715 57:0.15483683 58:2.2116416 59:1.088771 60:-0.55623694 61:1.0808854 62:2.7180418 63:0.60813707 64:1.6050477 65:0.22947045 66:0.097181327 67:-0.41519986 68:0.1017529 69:-0.021697418 70:-0.65533057 71:0.45110125 72:1.0166461 73:0.1711351 74:0.015356027 75:0.66329312 76:-0.16200264 77:0.93763267 78:-0.010320722 
1 1:-0.76395672 2:0.75052282 3:0.98273235 4:0.79476542 5:1.0608705 6:0.65279149 7:0.79221621 8:0.041001632 9:-0.069468184 10:-0.52438204 11:-1.1350871 12:0.44396132 13:0.22746612 14:-0.76068487 15:0.70644857 16:0.94623167 17:0.69237909 18:1.0752137 19:0.58388964 20:0.8055138 21:0.19080524 22:-0.060027427 23:-0.60779008 24:-0.89621681 25:0.22255072 26:0.18995273 27:-0.35364615 28:0.499249 29:1.308588 30:0.80277269 31:1.4571536 32:1.3818173 33:0.24163051 34:-0.24867571 35:0.86264687 36:0.42732602 37:-0.088434692 38:0.57130624 39:0.57619599 40:-0.82271216 41:0.034254265 42:-0.55698836 43:-0.17056083 44:-0.89247597 45:-0.74878507 46:-0.41535475 47:-0.34235868 48:-0.53664319 49:-0.50973441 50:-0.27340907 51:-0.014295164 52:-0.46517305 53:-1.1312082 54:0.25774265 55:-0.61006082 56:-0.074491675 57:-1.1047036 58:-0.98146942 59:-0.39516675 60:-0.3077819 61:-0.53939141 62:-0.49961129 63:-0.2311795 64:0.071394338 65:-0.51655273 66:0.76170052 67:-0.60236286 68:-1.2935867 69:-0.71321476 70:-1.1798376 71:-1.0309038 72:-0.67695257 73:-0.40620741 74:-0.74275689 75:-0.78489648 76:-0.056696385 77:-0.3372238 78:-0.69251703 
0.60633109987026701 1:0.33920764 2:0.16125005 3:0.21552073 4:0.47278657 5:-0.30132916 6:0.20387003 7:-0.032926062 8:-0.80755359 9:0.015237588 10:-1.1036645 11:-0.061577805 12:-0.33505791 13:-0.37664622 14:0.23968536 15:0.30524972 16:0.17028451 17:0.089015757 18:-0.38420066 19:0.31980891 20:-0.085309488 21:-1.0922344 22:0.52890674 23:-1.0159782 24:0.11498424 25:0.0038005223 26:-0.26776797 27:0.6314463 28:0.34897747 29:0.56763142 30:0.36806995 31:-0.021611843 32:-0.35024029 33:0.87766181 34:-1.3222494 35:-0.81146931 36:-1.4229076 37:-0.36872195 38:-1.5803501 39:-1.1864316 40:-0.26591041 41:-0.55865975 42:-0.5084339 43:0.73001671 44:0.21315084 45:0.79267457 46:-0.78842212 47:2.8452833 48:2.549281 49:-0.021651867 50:0.37450207 51:0.60741763 52:0.34677167 53:-0.11391557 54:-0.53771334 55:-0.53000815 56:1.0125488 57:0.36527458 58:1.0345617 59:-0.9140958 60:2.6952979 61:2.4179334 62:0.064511723 63:0.50241149 64:0.72661007 65:0.49947463 66:-0.4588905 67:-0.33423057 68:-0.52212479 69:-0.15247047 70:0.057323576 71:-0.16566585 72:-0.93087623 73:1.4323849 74:0.51745663 75:-0.12165815 76:-0.26932459 77:0.068493884 78:-0.10880136 
0.96415270252290897 1:-1.0849574 2:-0.33205788 3:-0.050112737 4:0.89187401 5:-0.98753664 6:1.9353751 7:0.20825347 8:-0.43688074 9:1.5389935 10:-0.68693704 11:-1.1799357 12:1.4162711 13:-1.0665538 14:-1.0375109 15:-0.30483979 16:-0.014239811 17:0.73310171 18:-0.96338677 19:2.0206797 20:0.18404771 21:-0.59778225 22:1.4883264 23:-0.72386283 24:-1.2071728 25:1.4557933 26:-1.080832 27:-1.0861419 28:-0.12611954 29:0.058083176 30:0.96988305 31:-0.068266661 32:0.57035405 33:0.90775072 34:-0.6188451 35:1.6561084 36:0.33959648 37:0.065403777 38:-0.15901163 39:-0.37349161 40:-0.49717877 41:-0.36229945 42:-0.185922 43:-0.17482049 44:-0.57980127 45:0.50858804 46:-1.0125843 47:0.10710769 48:-0.48653117 49:-0.44548627 50:-1.0474467 51:-0.046739407 52:-0.39752412 53:-0.45992646 54:-0.23773239 55:-0.058787508 56:-0.080578835 57:-0.62368682 58:0.73500254 59:-1.267203 60:0.23051978 61:-0.47629295 62:-0.42185476 63:-1.2711536 64:0.035141261 65:-0.42437825 66:1.1399515 67:0.19041652 68:-0.13838763 69:-0.70374195 70:0.60836206 71:1.2225009 72:-1.2275229 73:0.27108791 74:0.71594716 75:-0.67093329 76:-0.47013125 77:0.40592396 78:-0.079757984 
1 1:-0.12808409 2:-2.4836937 3:1.9424947 4:0.1233038 5:-0.31359772 6:0.20059514 7:-1.8238955 8:-0.18008705 9:-0.039418376 10:-1.4699424 11:0.20174454 12:-1.4864322 13:0.89994901 14:-0.036573383 15:-2.0954269 16:1.8422235 17:0.076084596 18:-0.38761537 19:0.19070216 20:-1.7002495 21:-0.34999937 22:-0.045633078 23:-1.4552961 24:0.31042383 25:-1.4596655 26:0.9721477 27:-0.50176248 28:-2.019746 29:2.1130764 30:0.73522313 31:0.68512386 32:0.41077101 33:-0.87778335 34:0.54558751 35:0.6804853 36:-0.26738903 37:-0.37172132 38:-0.70469113 39:1.6309962 40:-0.21100141 41:-0.56120499 42:-0.63642228 43:-0.42482474 44:-0.67166759 45:-0.26541718 46:-0.82955867 47:-0.80777595 48:-0.62228967 49:-0.88246043 50:-0.63150698 51:0.12459348 52:-0.69148557 53:-0.040121605 54:-0.54196374 55:-0.74803205 56:-0.46281244 57:-0.75762933 58:-0.21520849 59:-0.97615184 60:-0.94827691 61:-0.64929521 62:-0.97630983 63:-0.68432429 64:0.22407408 65:-0.83767811 66:0.068111815 67:2.3749726 68:-1.2145141 69:-0.60614659 70:-0.31498303 71:-0.78942936 72:1.6401645 73:-0.35987287 74:-0.79335658 75:-0.038143848 76:-0.85712929 77:0.89340372 78:-0.36504273 
0.12712233894971298 1:-0.39949072 2:1.123048 3:-0.18349427 4:-0.90800401 5:0.0071435361 6:-0.078548781 7:-0.0054344446 8:-0.37686496 9:-0.13309585 10:-0.7968859 11:-1.9008555 12:-1.7504979 13:-1.582023 14:-0.37813156 15:1.1530772 16:-0.16192938 17:-0.78397902 18:-0.039055209 19:-0.03739893 20:-0.030661586 21:-0.05188642 22:-0.10062689 23:-0.80978908 24:-1.802054 25:-2.0449474 26:-1.6272322 27:-0.10788509 28:0.43553126 29:-0.76345026 30:-1.2431491 31:-0.35322314 32:-0.5189143 33:-0.85749881 34:-1.1317308 35:0.25543084 36:-0.99804105 37:-2.2148752 38:-1.5900992 39:-2.720178 40:-0.65720056 41:-0.4043393 42:0.6376112 43:0.0042966056 44:1.3866153 45:-0.017093871 46:0.96102915 47:1.1230985 48:-0.40377933 49:0.82902659 50:0.85757285 51:1.9501644 52:0.31233673 53:-0.74882926 54:-0.29791649 55:0.87408322 56:0.1654527 57:1.5130119 58:0.11661348 59:1.1104807 60:1.2675353 61:-0.373933 62:0.93267728 63:0.99569171 64:1.9522363 65:0.45980565 66:0.35349665 67:-0.96650021 68:0.18714978 69:0.69467215 70:0.25610061 71:-0.50489581 72:-0.034953968 73:0.53068143 74:-0.65989763 75:-0.0074575217 76:1.5203117 77:1.9065752 78:0.92128032 
1 1:-0.22832925 2:0.44179517 3:-0.39884138 4:-0.46911478 5:-0.22501043 6:0.33955651 7:1.0644341 8:0.60501869 9:0.075335761 10:-0.56712196 11:0.62611717 12:-0.49097211 13:-0.019635008 14:-0.19506104 15:0.85957883 16:-0.36303818 17:-0.36173678 18:-0.19164536 19:0.31697771 20:0.99497682 21:0.69265264 22:0.095815448 23:-0.47360699 24:0.40395567 25:-0.58834507 26:0.079264254 27:-0.38184429 28:-0.21713436 29:0.048932398 30:-1.1308348 31:0.19851104 32:0.33123306 33:0.84740279 34:0.36392245 35:-0.66427648 36:-0.78865347 37:-0.31478394 38:-0.51370729 39:0.050417095 40:0.016026971 41:0.76066507 42:-0.62544773 43:0.080669432 44:-0.11763527 45:-0.57337068 46:0.36903866 47:-0.039120959 48:-0.048387418 49:-0.43123205 50:0.89564912 51:0.14432647 52:-0.3899856 53:0.24083497 54:0.96888257 55:-0.72839988 56:0.26480772 57:-0.017401936 58:-0.67960353 59:0.5199001 60:0.062242102 61:0.042637135 62:-0.40476062 63:1.0329899 64:0.24544753 65:-0.41420683 66:0.19215841 67:-0.18800673 68:0.17789335 69:0.22414691 70:-0.16124363 71:-1.0309407 72:-0.061919288 73:-0.71590877 74:-0.4970194 75:-0.72492814 76:0.37409171 77:-0.091708832 78:-0.68089278 
1 1:-1.1331745 2:0.84683785 3:-0.82104586 4:-0.15136172 5:0.37309342 6:0.24660875 7:-0.36744897 8:-0.46955336 9:0.26219983 10:-0.43103051 11:-0.76525181 12:1.2252278 13:-0.26081996 14:-1.1383522 15:0.82115331 16:-0.74710576 17:-0.1139857 18:0.4554316 19:0.12755969 20:-0.39130043 21:-0.54906275 22:0.31746474 23:-0.47627298 24:-0.81073357 25:1.3474019 26:-0.48558768 27:-0.78725275 28:1.2460134 29:-0.29019281 30:-0.41433614 31:1.273584 32:0.97346689 33:0.63416582 34:0.63469859 35:0.90349957 36:0.34216826 37:0.39026874 38:0.84851924 39:0.7806607 40:-0.83729575 41:-0.85547059 42:-0.80125608 43:-0.46015967 44:-0.97825076 45:-0.76537942 46:-0.79041304 47:-0.60212015 48:-0.67689682 49:-1.0804775 50:-0.68683197 51:-0.48962798 52:-0.6063229 53:-1.1721137 54:-1.1457063 55:-1.0708385 56:-0.52149333 57:-1.2512693 58:-1.0118882 59:-0.91707359 60:-0.65236461 61:-0.72080236 62:-1.2506588 63:-0.7581923 64:-0.48495813 65:-0.71439379 66:1.1827336 67:-1.0784398 68:0.66945097 69:-0.36552309 70:-1.1848402 71:-1.1953909 72:-0.60210584 73:0.066842778 74:-0.77328555 75:-1.1574999 76:-0.70932792 77:-0.029011232 78:-0.81666397 
1 1:-0.38542484 2:0.99613212 3:-0.80890722 4:-0.65229805 5:0.27737779 6:-0.24648477 7:0.055133608 8:-0.76995041 9:-0.16118679 10:-0.49980091 11:0.28723281 12:0.66910936 13:0.093449669 14:-0.42173589 15:0.99278303 16:-0.74601919 17:-0.570505 18:0.30787017 19:-0.16303842 20:0.09878685 21:-0.4691307 22:-0.19846774 23:-0.4282828 24:0.18244254 25:0.64590355 26:0.0052765008 27:0.03798068 28:1.4064371 29:-0.43321029 30:0.056123739 31:0.29091467 32:0.0068707511 33:0.35675816 34:-2.2145556 35:-0.082266225 36:-0.1650927 37:-0.14753967 38:0.36047886 39:0.13104629 40:-0.68668515 41:-0.92795913 42:-0.49935968 43:-0.75868447 44:-0.80095729 45:-0.58013081 46:-1.0015501 47:0.921317 48:0.16287085 49:-0.94334877 50:-0.79229847 51:-0.40368564 52:-0.44330957 53:-0.80888305 54:-1.3605589 55:-0.5153702 56:-1.0860439 57:-0.95606457 58:-0.69064528 59:-1.2488904 60:1.0767222 61:0.2750348 62:-1.0589129 63:-0.90229234 64:-0.38004351 65:-0.48658352 66:0.33612615 67:-1.2534574 68:0.70502213 69:0.082698768 70:-0.98960417 71:-0.71946714 72:-1.1408184 73:0.89421988 74:-0.37757488 75:-1.0483494 76:-0.92332024 77:-0.46294445 78:-0.71024017 
